<?xml version="1.0"?>
<opencv_storage>
<positive_data type_id="opencv-haar-classifier">
  <size>
    24 24</size>
  <stages>
    <_>
      <!-- stage 0 -->
      <trees>
        <_>
          <!-- tree 0 -->
          <_>
            <!-- root node -->
            <feature>
              <rects>
                <_>
                  10 4 3 6 -1.</_>
                <_>
                  11 5 1 6 3.</_></rects>
              <tilted>1</tilted></feature>
            <threshold>7.2686839848756790e-003</threshold>
            <left_val>-6.6532772779464722e-001</left_val>
            <right_val>7.8375858068466187e-001</right_val></_></_>
        <_>
          <!-- tree 1 -->
          <_>
            <!-- root node -->
            <feature>
              <rects>
                <_>
                  19 8 4 12 -1.</_>
                <_>
                  19 8 2 12 2.</_></rects>
              <tilted>0</tilted></feature>
            <threshold>-1.3645689934492111e-002</threshold>
            <left_val>7.0032042264938354e-001</left_val>
            <right_val>-3.9552950859069824e-001</right_val></_></_>
        <_>
          <!-- tree 2 -->
          <_>
            <!-- root node -->
            <feature>
              <rects>
                <_>
                  1 9 6 9 -1.</_>
                <_>
                  3 9 2 9 3.</_></rects>
              <tilted>0</tilted></feature>
            <threshold>-1.6098409891128540e-002</threshold>
            <left_val>7.4568927288055420e-001</left_val>
            <right_val>-4.5606479048728943e-001</right_val></_></_>
        <_>
          <!-- tree 3 -->
          <_>
            <!-- root node -->
            <feature>
              <rects>
                <_>
                  6 17 13 6 -1.</_>
                <_>
                  6 19 13 2 3.</_></rects>
              <tilted>0</tilted></feature>
            <threshold>-1.4949520118534565e-002</threshold>
            <left_val>6.1051881313323975e-001</left_val>
            <right_val>-3.8661560416221619e-001</right_val></_></_>
        <_>
          <!-- tree 4 -->
          <_>
            <!-- root node -->
            <feature>
              <rects>
                <_>
                  12 6 6 3 -1.</_>
                <_>
                  14 8 2 3 3.</_></rects>
              <tilted>1</tilted></feature>
            <threshold>-9.9281305447220802e-003</threshold>
            <left_val>5.1978999376296997e-001</left_val>
            <right_val>-4.8471489548683167e-001</right_val></_></_></trees>
      <stage_threshold>-1.3911180496215820e+000</stage_threshold>
      <parent>-1</parent>
      <next>-1</next></_>
    <_>
      <!-- stage 1 -->
      <trees>
        <_>
          <!-- tree 0 -->
          <_>
            <!-- root node -->
            <feature>
              <rects>
                <_>
                  8 0 8 8 -1.</_>
                <_>
                  8 2 8 4 2.</_></rects>
              <tilted>0</tilted></feature>
            <threshold>-1.9738119095563889e-002</threshold>
            <left_val>7.3160499334335327e-001</left_val>
            <right_val>-6.2211090326309204e-001</right_val></_></_>
        <_>
          <!-- tree 1 -->
          <_>
            <!-- root node -->
            <feature>
              <rects>
                <_>
                  16 7 2 4 -1.</_>
                <_>
                  17 7 1 2 2.</_>
                <_>
                  16 9 1 2 2.</_></rects>
              <tilted>0</tilted></feature>
            <threshold>-1.1678349692374468e-003</threshold>
            <left_val>5.3355908393859863e-001</left_val>
            <right_val>-2.3639050126075745e-001</right_val></_></_>
        <_>
          <!-- tree 2 -->
          <_>
            <!-- root node -->
            <feature>
              <rects>
                <_>
                  6 6 2 6 -1.</_>
                <_>
                  6 6 1 3 2.</_>
                <_>
                  7 9 1 3 2.</_></rects>
              <tilted>0</tilted></feature>
            <threshold>-1.4827350387349725e-003</threshold>
            <left_val>5.6471002101898193e-001</left_val>
            <right_val>-6.0433608293533325e-001</right_val></_></_>
        <_>
          <!-- tree 3 -->
          <_>
            <!-- root node -->
            <feature>
              <rects>
                <_>
                  17 15 4 5 -1.</_>
                <_>
                  18 16 2 5 2.</_></rects>
              <tilted>1</tilted></feature>
            <threshold>-1.0652950033545494e-002</threshold>
            <left_val>6.5859448909759521e-001</left_val>
            <right_val>-3.8992768526077271e-001</right_val></_></_>
        <_>
          <!-- tree 4 -->
          <_>
            <!-- root node -->
            <feature>
              <rects>
                <_>
                  6 15 4 4 -1.</_>
                <_>
                  5 16 4 2 2.</_></rects>
              <tilted>1</tilted></feature>
            <threshold>-1.0203340090811253e-002</threshold>
            <left_val>7.0839148759841919e-001</left_val>
            <right_val>-4.1476169228553772e-001</right_val></_></_>
        <_>
          <!-- tree 5 -->
          <_>
            <!-- root node -->
            <feature>
              <rects>
                <_>
                  18 9 3 5 -1.</_>
                <_>
                  19 9 1 5 3.</_></rects>
              <tilted>0</tilted></feature>
            <threshold>-4.3916371650993824e-003</threshold>
            <left_val>5.4954737424850464e-001</left_val>
            <right_val>-1.1209519952535629e-001</right_val></_></_>
        <_>
          <!-- tree 6 -->
          <_>
            <!-- root node -->
            <feature>
              <rects>
                <_>
                  9 2 6 21 -1.</_>
                <_>
                  11 9 2 7 9.</_></rects>
              <tilted>0</tilted></feature>
            <threshold>-2.0094370469450951e-002</threshold>
            <left_val>3.8067591190338135e-001</left_val>
            <right_val>-5.5041342973709106e-001</right_val></_></_></trees>
      <stage_threshold>-1.7609889507293701e+000</stage_threshold>
      <parent>0</parent>
      <next>-1</next></_>
    <_>
      <!-- stage 2 -->
      <trees>
        <_>
          <!-- tree 0 -->
          <_>
            <!-- root node -->
            <feature>
              <rects>
                <_>
                  9 2 3 6 -1.</_>
                <_>
                  10 3 1 6 3.</_></rects>
              <tilted>1</tilted></feature>
            <threshold>-1.7295690253376961e-002</threshold>
            <left_val>7.5916522741317749e-001</left_val>
            <right_val>-4.5574179291725159e-001</right_val></_></_>
        <_>
          <!-- tree 1 -->
          <_>
            <!-- root node -->
            <feature>
              <rects>
                <_>
                  18 3 6 17 -1.</_>
                <_>
                  18 3 3 17 2.</_></rects>
              <tilted>0</tilted></feature>
            <threshold>-5.5268041789531708e-002</threshold>
            <left_val>6.2155562639236450e-001</left_val>
            <right_val>-2.7791839838027954e-001</right_val></_></_>
        <_>
          <!-- tree 2 -->
          <_>
            <!-- root node -->
            <feature>
              <rects>
                <_>
                  1 10 6 5 -1.</_>
                <_>
                  3 10 2 5 3.</_></rects>
              <tilted>0</tilted></feature>
            <threshold>-6.7546470090746880e-003</threshold>
            <left_val>4.6879360079765320e-001</left_val>
            <right_val>-5.1622647047042847e-001</right_val></_></_>
        <_>
          <!-- tree 3 -->
          <_>
            <!-- root node -->
            <feature>
              <rects>
                <_>
                  9 18 7 6 -1.</_>
                <_>
                  9 20 7 2 3.</_></rects>
              <tilted>0</tilted></feature>
            <threshold>-2.9266800731420517e-002</threshold>
            <left_val>7.2619247436523438e-001</left_val>
            <right_val>-2.7845820784568787e-001</right_val></_></_>
        <_>
          <!-- tree 4 -->
          <_>
            <!-- root node -->
            <feature>
              <rects>
                <_>
                  7 6 8 12 -1.</_>
                <_>
                  7 9 8 6 2.</_></rects>
              <tilted>0</tilted></feature>
            <threshold>-2.7936670929193497e-002</threshold>
            <left_val>4.6847760677337646e-001</left_val>
            <right_val>-4.1088789701461792e-001</right_val></_></_>
        <_>
          <!-- tree 5 -->
          <_>
            <!-- root node -->
            <feature>
              <rects>
                <_>
                  6 0 13 8 -1.</_>
                <_>
                  6 2 13 4 2.</_></rects>
              <tilted>0</tilted></feature>
            <threshold>-3.6926109343767166e-002</threshold>
            <left_val>4.9257948994636536e-001</left_val>
            <right_val>-2.8819391131401062e-001</right_val></_></_>
        <_>
          <!-- tree 6 -->
          <_>
            <!-- root node -->
            <feature>
              <rects>
                <_>
                  6 8 3 1 -1.</_>
                <_>
                  7 9 1 1 3.</_></rects>
              <tilted>1</tilted></feature>
            <threshold>2.9312709812074900e-003</threshold>
            <left_val>-3.0853891372680664e-001</left_val>
            <right_val>4.1878530383110046e-001</right_val></_></_>
        <_>
          <!-- tree 7 -->
          <_>
            <!-- root node -->
            <feature>
              <rects>
                <_>
                  8 12 8 6 -1.</_>
                <_>
                  8 14 8 2 3.</_></rects>
              <tilted>0</tilted></feature>
            <threshold>-2.3440459743142128e-002</threshold>
            <left_val>5.6619489192962646e-001</left_val>
            <right_val>-2.2111849486827850e-001</right_val></_></_>
        <_>
          <!-- tree 8 -->
          <_>
            <!-- root node -->
            <feature>
              <rects>
                <_>
                  5 9 14 4 -1.</_>
                <_>
                  12 9 7 4 2.</_></rects>
              <tilted>0</tilted></feature>
            <threshold>-1.3608390465378761e-002</threshold>
            <left_val>-5.5637192726135254e-001</left_val>
            <right_val>2.0641079545021057e-001</right_val></_></_>
        <_>
          <!-- tree 9 -->
          <_>
            <!-- root node -->
            <feature>
              <rects>
                <_>
                  8 20 8 2 -1.</_>
                <_>
                  8 21 8 1 2.</_></rects>
              <tilted>0</tilted></feature>
            <threshold>8.1132641062140465e-003</threshold>
            <left_val>-1.8026299774646759e-001</left_val>
            <right_val>6.0757458209991455e-001</right_val></_></_>
        <_>
          <!-- tree 10 -->
          <_>
            <!-- root node -->
            <feature>
              <rects>
                <_>
                  11 6 6 2 -1.</_>
                <_>
                  13 8 2 2 3.</_></rects>
              <tilted>1</tilted></feature>
            <threshold>-1.0072040371596813e-002</threshold>
            <left_val>3.6849328875541687e-001</left_val>
            <right_val>-3.1617850065231323e-001</right_val></_></_></trees>
      <stage_threshold>-1.6351180076599121e+000</stage_threshold>
      <parent>1</parent>
      <next>-1</next></_>
    <_>
      <!-- stage 3 -->
      <trees>
        <_>
          <!-- tree 0 -->
          <_>
            <!-- root node -->
            <feature>
              <rects>
                <_>
                  0 5 6 15 -1.</_>
                <_>
                  3 5 3 15 2.</_></rects>
              <tilted>0</tilted></feature>
            <threshold>-4.7509469091892242e-002</threshold>
            <left_val>6.9122457504272461e-001</left_val>
            <right_val>-4.7874909639358521e-001</right_val></_></_>
        <_>
          <!-- tree 1 -->
          <_>
            <!-- root node -->
            <feature>
              <rects>
                <_>
                  14 4 6 3 -1.</_>
                <_>
                  13 5 6 1 3.</_></rects>
              <tilted>1</tilted></feature>
            <threshold>1.1364599689841270e-002</threshold>
            <left_val>-1.1562179774045944e-001</left_val>
            <right_val>4.7270068526268005e-001</right_val></_></_>
        <_>
          <!-- tree 2 -->
          <_>
            <!-- root node -->
            <feature>
              <rects>
                <_>
                  4 10 4 4 -1.</_>
                <_>
                  5 10 2 4 2.</_></rects>
              <tilted>0</tilted></feature>
            <threshold>4.5267781242728233e-003</threshold>
            <left_val>-4.9573180079460144e-001</left_val>
            <right_val>4.8280361294746399e-001</right_val></_></_>
        <_>
          <!-- tree 3 -->
          <_>
            <!-- root node -->
            <feature>
              <rects>
                <_>
                  10 3 10 4 -1.</_>
                <_>
                  15 3 5 2 2.</_>
                <_>
                  10 5 5 2 2.</_></rects>
              <tilted>0</tilted></feature>
            <threshold>1.2767540290951729e-002</threshold>
            <left_val>-2.8667190670967102e-001</left_val>
            <right_val>5.5505102872848511e-001</right_val></_></_>
        <_>
          <!-- tree 4 -->
          <_>
            <!-- root node -->
            <feature>
              <rects>
                <_>
                  7 15 5 4 -1.</_>
                <_>
                  6 16 5 2 2.</_></rects>
              <tilted>1</tilted></feature>
            <threshold>-5.5327941663563251e-003</threshold>
            <left_val>3.9047360420227051e-001</left_val>
            <right_val>-4.4167029857635498e-001</right_val></_></_>
        <_>
          <!-- tree 5 -->
          <_>
            <!-- root node -->
            <feature>
              <rects>
                <_>
                  14 5 4 2 -1.</_>
                <_>
                  16 5 2 1 2.</_>
                <_>
                  14 6 2 1 2.</_></rects>
              <tilted>0</tilted></feature>
            <threshold>3.9624487981200218e-003</threshold>
            <left_val>-1.0635030269622803e-001</left_val>
            <right_val>4.5991981029510498e-001</right_val></_></_>
        <_>
          <!-- tree 6 -->
          <_>
            <!-- root node -->
            <feature>
              <rects>
                <_>
                  12 6 6 3 -1.</_>
                <_>
                  14 8 2 3 3.</_></rects>
              <tilted>1</tilted></feature>
            <threshold>-7.1503929793834686e-003</threshold>
            <left_val>2.7927750349044800e-001</left_val>
            <right_val>-4.7904708981513977e-001</right_val></_></_>
        <_>
          <!-- tree 7 -->
          <_>
            <!-- root node -->
            <feature>
              <rects>
                <_>
                  17 2 4 4 -1.</_>
                <_>
                  16 3 4 2 2.</_></rects>
              <tilted>1</tilted></feature>
            <threshold>1.5651399269700050e-002</threshold>
            <left_val>-1.2029749900102615e-001</left_val>
            <right_val>7.1394461393356323e-001</right_val></_></_>
        <_>
          <!-- tree 8 -->
          <_>
            <!-- root node -->
            <feature>
              <rects>
                <_>
                  7 2 4 4 -1.</_>
                <_>
                  8 3 2 4 2.</_></rects>
              <tilted>1</tilted></feature>
            <threshold>-1.1000700294971466e-002</threshold>
            <left_val>5.3790777921676636e-001</left_val>
            <right_val>-3.0003210902214050e-001</right_val></_></_>
        <_>
          <!-- tree 9 -->
          <_>
            <!-- root node -->
            <feature>
              <rects>
                <_>
                  9 18 7 4 -1.</_>
                <_>
                  9 19 7 2 2.</_></rects>
              <tilted>0</tilted></feature>
            <threshold>-1.3349370099604130e-002</threshold>
            <left_val>6.4796042442321777e-001</left_val>
            <right_val>-1.5637339651584625e-001</right_val></_></_>
        <_>
          <!-- tree 10 -->
          <_>
            <!-- root node -->
            <feature>
              <rects>
                <_>
                  9 20 6 4 -1.</_>
                <_>
                  9 21 6 2 2.</_></rects>
              <tilted>0</tilted></feature>
            <threshold>-1.1002000421285629e-002</threshold>
            <left_val>6.4711481332778931e-001</left_val>
            <right_val>-2.0457500219345093e-001</right_val></_></_>
        <_>
          <!-- tree 11 -->
          <_>
            <!-- root node -->
            <feature>
              <rects>
                <_>
                  23 3 1 6 -1.</_>
                <_>
                  23 6 1 3 2.</_></rects>
              <tilted>0</tilted></feature>
            <threshold>3.0775070190429688e-003</threshold>
            <left_val>1.1155640333890915e-001</left_val>
            <right_val>-4.5129320025444031e-001</right_val></_></_>
        <_>
          <!-- tree 12 -->
          <_>
            <!-- root node -->
            <feature>
              <rects>
                <_>
                  0 4 1 4 -1.</_>
                <_>
                  0 6 1 2 2.</_></rects>
              <tilted>0</tilted></feature>
            <threshold>2.2421730682253838e-003</threshold>
            <left_val>1.1474219709634781e-001</left_val>
            <right_val>-8.2962578535079956e-001</right_val></_></_></trees>
      <stage_threshold>-1.5604079961776733e+000</stage_threshold>
      <parent>2</parent>
      <next>-1</next></_>
    <_>
      <!-- stage 4 -->
      <trees>
        <_>
          <!-- tree 0 -->
          <_>
            <!-- root node -->
            <feature>
              <rects>
                <_>
                  5 0 14 6 -1.</_>
                <_>
                  5 3 14 3 2.</_></rects>
              <tilted>0</tilted></feature>
            <threshold>-4.7620840370655060e-002</threshold>
            <left_val>6.1040657758712769e-001</left_val>
            <right_val>-4.5171138644218445e-001</right_val></_></_>
        <_>
          <!-- tree 1 -->
          <_>
            <!-- root node -->
            <feature>
              <rects>
                <_>
                  18 9 3 3 -1.</_>
                <_>
                  19 9 1 3 3.</_></rects>
              <tilted>0</tilted></feature>
            <threshold>-3.9236261509358883e-003</threshold>
            <left_val>3.9292851090431213e-001</left_val>
            <right_val>-1.0087630152702332e-001</right_val></_></_>
        <_>
          <!-- tree 2 -->
          <_>
            <!-- root node -->
            <feature>
              <rects>
                <_>
                  3 8 3 4 -1.</_>
                <_>
                  4 8 1 4 3.</_></rects>
              <tilted>0</tilted></feature>
            <threshold>-3.3219039905816317e-003</threshold>
            <left_val>4.7311779856681824e-001</left_val>
            <right_val>-4.5061320066452026e-001</right_val></_></_>
        <_>
          <!-- tree 3 -->
          <_>
            <!-- root node -->
            <feature>
              <rects>
                <_>
                  14 11 4 2 -1.</_>
                <_>
                  15 12 2 2 2.</_></rects>
              <tilted>1</tilted></feature>
            <threshold>-1.2564620003104210e-002</threshold>
            <left_val>3.5149520635604858e-001</left_val>
            <right_val>-5.2551649510860443e-002</right_val></_></_>
        <_>
          <!-- tree 4 -->
          <_>
            <!-- root node -->
            <feature>
              <rects>
                <_>
                  10 11 2 4 -1.</_>
                <_>
                  9 12 2 2 2.</_></rects>
              <tilted>1</tilted></feature>
            <threshold>-2.5274909567087889e-003</threshold>
            <left_val>3.8396260142326355e-001</left_val>
            <right_val>-3.9661580324172974e-001</right_val></_></_>
        <_>
          <!-- tree 5 -->
          <_>
            <!-- root node -->
            <feature>
              <rects>
                <_>
                  16 3 4 3 -1.</_>
                <_>
                  15 4 4 1 3.</_></rects>
              <tilted>1</tilted></feature>
            <threshold>1.3815860264003277e-002</threshold>
            <left_val>-5.4259028285741806e-002</left_val>
            <right_val>4.7718000411987305e-001</right_val></_></_>
        <_>
          <!-- tree 6 -->
          <_>
            <!-- root node -->
            <feature>
              <rects>
                <_>
                  8 3 3 4 -1.</_>
                <_>
                  9 4 1 4 3.</_></rects>
              <tilted>1</tilted></feature>
            <threshold>-2.0056620240211487e-002</threshold>
            <left_val>6.8412351608276367e-001</left_val>
            <right_val>-2.3249059915542603e-001</right_val></_></_>
        <_>
          <!-- tree 7 -->
          <_>
            <!-- root node -->
            <feature>
              <rects>
                <_>
                  12 0 2 10 -1.</_>
                <_>
                  12 0 1 10 2.</_></rects>
              <tilted>1</tilted></feature>
            <threshold>-3.2787650823593140e-002</threshold>
            <left_val>-7.6880037784576416e-001</left_val>
            <right_val>1.6922600567340851e-002</right_val></_></_>
        <_>
          <!-- tree 8 -->
          <_>
            <!-- root node -->
            <feature>
              <rects>
                <_>
                  12 0 10 2 -1.</_>
                <_>
                  12 0 10 1 2.</_></rects>
              <tilted>1</tilted></feature>
            <threshold>-5.1005760906264186e-004</threshold>
            <left_val>2.9230329394340515e-001</left_val>
            <right_val>-4.4813740253448486e-001</right_val></_></_>
        <_>
          <!-- tree 9 -->
          <_>
            <!-- root node -->
            <feature>
              <rects>
                <_>
                  9 18 6 6 -1.</_>
                <_>
                  9 20 6 2 3.</_></rects>
              <tilted>0</tilted></feature>
            <threshold>-2.2739589214324951e-002</threshold>
            <left_val>5.0256758928298950e-001</left_val>
            <right_val>-2.7055719494819641e-001</right_val></_></_>
        <_>
          <!-- tree 10 -->
          <_>
            <!-- root node -->
            <feature>
              <rects>
                <_>
                  0 1 6 18 -1.</_>
                <_>
                  3 1 3 18 2.</_></rects>
              <tilted>0</tilted></feature>
            <threshold>-5.5518630892038345e-002</threshold>
            <left_val>4.6375858783721924e-001</left_val>
            <right_val>-2.5117948651313782e-001</right_val></_></_>
        <_>
          <!-- tree 11 -->
          <_>
            <!-- root node -->
            <feature>
              <rects>
                <_>
                  10 6 6 12 -1.</_>
                <_>
                  10 9 6 6 2.</_></rects>
              <tilted>0</tilted></feature>
            <threshold>-1.2857389636337757e-002</threshold>
            <left_val>2.4724109470844269e-001</left_val>
            <right_val>-3.0177721381187439e-001</right_val></_></_>
        <_>
          <!-- tree 12 -->
          <_>
            <!-- root node -->
            <feature>
              <rects>
                <_>
                  8 8 2 2 -1.</_>
                <_>
                  8 8 1 2 2.</_></rects>
              <tilted>1</tilted></feature>
            <threshold>4.3760280823335052e-004</threshold>
            <left_val>-4.8374828696250916e-001</left_val>
            <right_val>1.9588649272918701e-001</right_val></_></_>
        <_>
          <!-- tree 13 -->
          <_>
            <!-- root node -->
            <feature>
              <rects>
                <_>
                  18 13 3 5 -1.</_>
                <_>
                  19 14 1 5 3.</_></rects>
              <tilted>1</tilted></feature>
            <threshold>-1.6279470175504684e-002</threshold>
            <left_val>5.8686530590057373e-001</left_val>
            <right_val>-9.7129993140697479e-002</right_val></_></_>
        <_>
          <!-- tree 14 -->
          <_>
            <!-- root node -->
            <feature>
              <rects>
                <_>
                  7 1 3 6 -1.</_>
                <_>
                  8 2 1 6 3.</_></rects>
              <tilted>1</tilted></feature>
            <threshold>-1.9088340923190117e-002</threshold>
            <left_val>6.9228941202163696e-001</left_val>
            <right_val>-1.2267769873142242e-001</right_val></_></_>
        <_>
          <!-- tree 15 -->
          <_>
            <!-- root node -->
            <feature>
              <rects>
                <_>
                  11 0 6 1 -1.</_>
                <_>
                  13 0 2 1 3.</_></rects>
              <tilted>0</tilted></feature>
            <threshold>2.2211379837244749e-003</threshold>
            <left_val>1.3649989664554596e-001</left_val>
            <right_val>-5.7907062768936157e-001</right_val></_></_>
        <_>
          <!-- tree 16 -->
          <_>
            <!-- root node -->
            <feature>
              <rects>
                <_>
                  6 0 9 1 -1.</_>
                <_>
                  9 0 3 1 3.</_></rects>
              <tilted>0</tilted></feature>
            <threshold>2.0408430136740208e-003</threshold>
            <left_val>1.7380400002002716e-001</left_val>
            <right_val>-5.5716782808303833e-001</right_val></_></_>
        <_>
          <!-- tree 17 -->
          <_>
            <!-- root node -->
            <feature>
              <rects>
                <_>
                  17 14 4 6 -1.</_>
                <_>
                  18 15 2 6 2.</_></rects>
              <tilted>1</tilted></feature>
            <threshold>-2.1313199773430824e-002</threshold>
            <left_val>5.2796930074691772e-001</left_val>
            <right_val>-1.4378440380096436e-001</right_val></_></_>
        <_>
          <!-- tree 18 -->
          <_>
            <!-- root node -->
            <feature>
              <rects>
                <_>
                  8 13 8 5 -1.</_>
                <_>
                  10 13 4 5 2.</_></rects>
              <tilted>0</tilted></feature>
            <threshold>-7.1378541179001331e-004</threshold>
            <left_val>2.5254029035568237e-001</left_val>
            <right_val>-3.5088530182838440e-001</right_val></_></_>
        <_>
          <!-- tree 19 -->
          <_>
            <!-- root node -->
            <feature>
              <rects>
                <_>
                  19 14 4 5 -1.</_>
                <_>
                  20 15 2 5 2.</_></rects>
              <tilted>1</tilted></feature>
            <threshold>-1.0740379802882671e-002</threshold>
            <left_val>4.5425719022750854e-001</left_val>
            <right_val>-2.4754680693149567e-001</right_val></_></_></trees>
      <stage_threshold>-1.8005069494247437e+000</stage_threshold>
      <parent>3</parent>
      <next>-1</next></_>
    <_>
      <!-- stage 5 -->
      <trees>
        <_>
          <!-- tree 0 -->
          <_>
            <!-- root node -->
            <feature>
              <rects>
                <_>
                  11 4 2 1 -1.</_>
                <_>
                  11 4 1 1 2.</_></rects>
              <tilted>1</tilted></feature>
            <threshold>-5.1713961875066161e-004</threshold>
            <left_val>5.5449342727661133e-001</left_val>
            <right_val>-6.1915272474288940e-001</right_val></_></_>
        <_>
          <!-- tree 1 -->
          <_>
            <!-- root node -->
            <feature>
              <rects>
                <_>
                  0 19 24 3 -1.</_>
                <_>
                  6 19 12 3 2.</_></rects>
              <tilted>0</tilted></feature>
            <threshold>-2.2546680644154549e-002</threshold>
            <left_val>5.3189802169799805e-001</left_val>
            <right_val>-5.0598907470703125e-001</right_val></_></_>
        <_>
          <!-- tree 2 -->
          <_>
            <!-- root node -->
            <feature>
              <rects>
                <_>
                  6 7 2 4 -1.</_>
                <_>
                  6 7 1 2 2.</_>
                <_>
                  7 9 1 2 2.</_></rects>
              <tilted>0</tilted></feature>
            <threshold>-9.2916347784921527e-004</threshold>
            <left_val>3.4590318799018860e-001</left_val>
            <right_val>-6.0020637512207031e-001</right_val></_></_>
        <_>
          <!-- tree 3 -->
          <_>
            <!-- root node -->
            <feature>
              <rects>
                <_>
                  15 16 4 3 -1.</_>
                <_>
                  15 16 2 3 2.</_></rects>
              <tilted>0</tilted></feature>
            <threshold>5.3617259254679084e-004</threshold>
            <left_val>-3.5840341448783875e-001</left_val>
            <right_val>2.9218411445617676e-001</right_val></_></_>
        <_>
          <!-- tree 4 -->
          <_>
            <!-- root node -->
            <feature>
              <rects>
                <_>
                  8 16 1 2 -1.</_>
                <_>
                  8 16 1 1 2.</_></rects>
              <tilted>1</tilted></feature>
            <threshold>2.4260309874080122e-004</threshold>
            <left_val>-4.4415879249572754e-001</left_val>
            <right_val>3.5833570361137390e-001</right_val></_></_>
        <_>
          <!-- tree 5 -->
          <_>
            <!-- root node -->
            <feature>
              <rects>
                <_>
                  0 2 24 2 -1.</_>
                <_>
                  6 2 12 2 2.</_></rects>
              <tilted>0</tilted></feature>
            <threshold>-1.4526389539241791e-002</threshold>
            <left_val>4.0529999136924744e-001</left_val>
            <right_val>-4.2368319630622864e-001</right_val></_></_>
        <_>
          <!-- tree 6 -->
          <_>
            <!-- root node -->
            <feature>
              <rects>
                <_>
                  7 10 1 4 -1.</_>
                <_>
                  7 10 1 2 2.</_></rects>
              <tilted>1</tilted></feature>
            <threshold>5.2693590987473726e-004</threshold>
            <left_val>-4.2597121000289917e-001</left_val>
            <right_val>2.9093998670578003e-001</right_val></_></_>
        <_>
          <!-- tree 7 -->
          <_>
            <!-- root node -->
            <feature>
              <rects>
                <_>
                  4 6 16 1 -1.</_>
                <_>
                  8 6 8 1 2.</_></rects>
              <tilted>0</tilted></feature>
            <threshold>4.0882490575313568e-003</threshold>
            <left_val>-3.8768169283866882e-001</left_val>
            <right_val>3.1703290343284607e-001</right_val></_></_></trees>
      <stage_threshold>-1.6074500083923340e+000</stage_threshold>
      <parent>4</parent>
      <next>-1</next></_>
    <_>
      <!-- stage 6 -->
      <trees>
        <_>
          <!-- tree 0 -->
          <_>
            <!-- root node -->
            <feature>
              <rects>
                <_>
                  8 0 4 7 -1.</_>
                <_>
                  8 0 2 7 2.</_></rects>
              <tilted>1</tilted></feature>
            <threshold>4.4234640896320343e-002</threshold>
            <left_val>-3.3378198742866516e-001</left_val>
            <right_val>6.7328357696533203e-001</right_val></_></_>
        <_>
          <!-- tree 1 -->
          <_>
            <!-- root node -->
            <feature>
              <rects>
                <_>
                  18 14 4 5 -1.</_>
                <_>
                  19 15 2 5 2.</_></rects>
              <tilted>1</tilted></feature>
            <threshold>-1.5826979652047157e-002</threshold>
            <left_val>5.5084002017974854e-001</left_val>
            <right_val>-2.8051948547363281e-001</right_val></_></_>
        <_>
          <!-- tree 2 -->
          <_>
            <!-- root node -->
            <feature>
              <rects>
                <_>
                  6 14 5 4 -1.</_>
                <_>
                  5 15 5 2 2.</_></rects>
              <tilted>1</tilted></feature>
            <threshold>-1.7306920140981674e-002</threshold>
            <left_val>5.8925932645797729e-001</left_val>
            <right_val>-2.6736629009246826e-001</right_val></_></_>
        <_>
          <!-- tree 3 -->
          <_>
            <!-- root node -->
            <feature>
              <rects>
                <_>
                  7 0 12 8 -1.</_>
                <_>
                  7 2 12 4 2.</_></rects>
              <tilted>0</tilted></feature>
            <threshold>-3.6853458732366562e-002</threshold>
            <left_val>3.6275330185890198e-001</left_val>
            <right_val>-3.4758940339088440e-001</right_val></_></_>
        <_>
          <!-- tree 4 -->
          <_>
            <!-- root node -->
            <feature>
              <rects>
                <_>
                  9 5 3 5 -1.</_>
                <_>
                  10 6 1 5 3.</_></rects>
              <tilted>1</tilted></feature>
            <threshold>1.1689400300383568e-002</threshold>
            <left_val>-3.2941728830337524e-001</left_val>
            <right_val>3.8561099767684937e-001</right_val></_></_>
        <_>
          <!-- tree 5 -->
          <_>
            <!-- root node -->
            <feature>
              <rects>
                <_>
                  16 2 6 3 -1.</_>
                <_>
                  15 3 6 1 3.</_></rects>
              <tilted>1</tilted></feature>
            <threshold>-2.2905770689249039e-002</threshold>
            <left_val>7.0293021202087402e-001</left_val>
            <right_val>-1.8222719430923462e-001</right_val></_></_>
        <_>
          <!-- tree 6 -->
          <_>
            <!-- root node -->
            <feature>
              <rects>
                <_>
                  8 2 3 5 -1.</_>
                <_>
                  9 3 1 5 3.</_></rects>
              <tilted>1</tilted></feature>
            <threshold>1.1002300307154655e-002</threshold>
            <left_val>-2.2046780586242676e-001</left_val>
            <right_val>6.7970287799835205e-001</right_val></_></_>
        <_>
          <!-- tree 7 -->
          <_>
            <!-- root node -->
            <feature>
              <rects>
                <_>
                  9 0 6 24 -1.</_>
                <_>
                  11 8 2 8 9.</_></rects>
              <tilted>0</tilted></feature>
            <threshold>-7.5943589210510254e-002</threshold>
            <left_val>3.5994911193847656e-001</left_val>
            <right_val>-3.2588779926300049e-001</right_val></_></_>
        <_>
          <!-- tree 8 -->
          <_>
            <!-- root node -->
            <feature>
              <rects>
                <_>
                  3 11 3 3 -1.</_>
                <_>
                  4 11 1 3 3.</_></rects>
              <tilted>0</tilted></feature>
            <threshold>-2.3731209803372622e-003</threshold>
            <left_val>3.1815880537033081e-001</left_val>
            <right_val>-2.9714271426200867e-001</right_val></_></_>
        <_>
          <!-- tree 9 -->
          <_>
            <!-- root node -->
            <feature>
              <rects>
                <_>
                  23 15 1 3 -1.</_>
                <_>
                  23 16 1 1 3.</_></rects>
              <tilted>0</tilted></feature>
            <threshold>-5.0988508155569434e-004</threshold>
            <left_val>-5.0335431098937988e-001</left_val>
            <right_val>1.5678369998931885e-001</right_val></_></_>
        <_>
          <!-- tree 10 -->
          <_>
            <!-- root node -->
            <feature>
              <rects>
                <_>
                  3 23 4 1 -1.</_>
                <_>
                  4 23 2 1 2.</_></rects>
              <tilted>0</tilted></feature>
            <threshold>5.2324210992082953e-004</threshold>
            <left_val>1.4445379376411438e-001</left_val>
            <right_val>-5.8202397823333740e-001</right_val></_></_>
        <_>
          <!-- tree 11 -->
          <_>
            <!-- root node -->
            <feature>
              <rects>
                <_>
                  23 14 1 4 -1.</_>
                <_>
                  23 15 1 2 2.</_></rects>
              <tilted>0</tilted></feature>
            <threshold>5.1653827540576458e-004</threshold>
            <left_val>1.1759459972381592e-001</left_val>
            <right_val>-3.1564098596572876e-001</right_val></_></_>
        <_>
          <!-- tree 12 -->
          <_>
            <!-- root node -->
            <feature>
              <rects>
                <_>
                  0 16 1 2 -1.</_>
                <_>
                  0 17 1 1 2.</_></rects>
              <tilted>0</tilted></feature>
            <threshold>-4.6311199548654258e-004</threshold>
            <left_val>-5.8747380971908569e-001</left_val>
            <right_val>1.4861659705638885e-001</right_val></_></_>
        <_>
          <!-- tree 13 -->
          <_>
            <!-- root node -->
            <feature>
              <rects>
                <_>
                  19 14 4 6 -1.</_>
                <_>
                  20 15 2 6 2.</_></rects>
              <tilted>1</tilted></feature>
            <threshold>-1.8830399960279465e-002</threshold>
            <left_val>3.4203210473060608e-001</left_val>
            <right_val>-1.5359389781951904e-001</right_val></_></_>
        <_>
          <!-- tree 14 -->
          <_>
            <!-- root node -->
            <feature>
              <rects>
                <_>
                  1 22 4 2 -1.</_>
                <_>
                  2 22 2 2 2.</_></rects>
              <tilted>0</tilted></feature>
            <threshold>1.9518539775162935e-003</threshold>
            <left_val>1.2776879966259003e-001</left_val>
            <right_val>-6.3268327713012695e-001</right_val></_></_>
        <_>
          <!-- tree 15 -->
          <_>
            <!-- root node -->
            <feature>
              <rects>
                <_>
                  19 15 2 5 -1.</_>
                <_>
                  19 15 1 5 2.</_></rects>
              <tilted>1</tilted></feature>
            <threshold>-1.5954870730638504e-002</threshold>
            <left_val>6.5796202421188354e-001</left_val>
            <right_val>-1.1096730083227158e-001</right_val></_></_>
        <_>
          <!-- tree 16 -->
          <_>
            <!-- root node -->
            <feature>
              <rects>
                <_>
                  5 8 6 6 -1.</_>
                <_>
                  7 10 2 2 9.</_></rects>
              <tilted>0</tilted></feature>
            <threshold>-5.9698917903006077e-003</threshold>
            <left_val>2.3151589930057526e-001</left_val>
            <right_val>-3.6923870444297791e-001</right_val></_></_>
        <_>
          <!-- tree 17 -->
          <_>
            <!-- root node -->
            <feature>
              <rects>
                <_>
                  12 5 12 3 -1.</_>
                <_>
                  16 6 4 1 9.</_></rects>
              <tilted>0</tilted></feature>
            <threshold>-1.2123090215027332e-002</threshold>
            <left_val>2.6975229382514954e-001</left_val>
            <right_val>-3.0926311016082764e-001</right_val></_></_></trees>
      <stage_threshold>-1.6793999671936035e+000</stage_threshold>
      <parent>5</parent>
      <next>-1</next></_>
    <_>
      <!-- stage 7 -->
      <trees>
        <_>
          <!-- tree 0 -->
          <_>
            <!-- root node -->
            <feature>
              <rects>
                <_>
                  4 3 10 4 -1.</_>
                <_>
                  4 3 5 2 2.</_>
                <_>
                  9 5 5 2 2.</_></rects>
              <tilted>0</tilted></feature>
            <threshold>2.2343710064888000e-002</threshold>
            <left_val>-3.5187080502510071e-001</left_val>
            <right_val>6.2391459941864014e-001</right_val></_></_>
        <_>
          <!-- tree 1 -->
          <_>
            <!-- root node -->
            <feature>
              <rects>
                <_>
                  18 8 6 12 -1.</_>
                <_>
                  18 8 3 12 2.</_></rects>
              <tilted>0</tilted></feature>
            <threshold>-3.3773019909858704e-002</threshold>
            <left_val>4.9954378604888916e-001</left_val>
            <right_val>-3.0858939886093140e-001</right_val></_></_>
        <_>
          <!-- tree 2 -->
          <_>
            <!-- root node -->
            <feature>
              <rects>
                <_>
                  2 10 4 6 -1.</_>
                <_>
                  3 10 2 6 2.</_></rects>
              <tilted>0</tilted></feature>
            <threshold>-7.3631377890706062e-003</threshold>
            <left_val>3.9546659588813782e-001</left_val>
            <right_val>-3.5501599311828613e-001</right_val></_></_>
        <_>
          <!-- tree 3 -->
          <_>
            <!-- root node -->
            <feature>
              <rects>
                <_>
                  19 14 4 6 -1.</_>
                <_>
                  20 15 2 6 2.</_></rects>
              <tilted>1</tilted></feature>
            <threshold>-2.7564380317926407e-002</threshold>
            <left_val>4.9129530787467957e-001</left_val>
            <right_val>-1.7180030047893524e-001</right_val></_></_>
        <_>
          <!-- tree 4 -->
          <_>
            <!-- root node -->
            <feature>
              <rects>
                <_>
                  8 18 7 4 -1.</_>
                <_>
                  8 19 7 2 2.</_></rects>
              <tilted>0</tilted></feature>
            <threshold>-1.0634319856762886e-002</threshold>
            <left_val>5.0074642896652222e-001</left_val>
            <right_val>-2.3828010261058807e-001</right_val></_></_>
        <_>
          <!-- tree 5 -->
          <_>
            <!-- root node -->
            <feature>
              <rects>
                <_>
                  19 14 4 6 -1.</_>
                <_>
                  20 15 2 6 2.</_></rects>
              <tilted>1</tilted></feature>
            <threshold>-1.4351589605212212e-002</threshold>
            <left_val>1.5917789936065674e-001</left_val>
            <right_val>-9.4482243061065674e-002</right_val></_></_>
        <_>
          <!-- tree 6 -->
          <_>
            <!-- root node -->
            <feature>
              <rects>
                <_>
                  6 7 2 4 -1.</_>
                <_>
                  6 7 1 2 2.</_>
                <_>
                  7 9 1 2 2.</_></rects>
              <tilted>0</tilted></feature>
            <threshold>-2.6094459462910891e-003</threshold>
            <left_val>3.4626388549804688e-001</left_val>
            <right_val>-3.0178689956665039e-001</right_val></_></_>
        <_>
          <!-- tree 7 -->
          <_>
            <!-- root node -->
            <feature>
              <rects>
                <_>
                  19 14 4 6 -1.</_>
                <_>
                  20 15 2 6 2.</_></rects>
              <tilted>1</tilted></feature>
            <threshold>1.8427740782499313e-002</threshold>
            <left_val>-2.3412799462676048e-002</left_val>
            <right_val>2.5340890884399414e-001</right_val></_></_>
        <_>
          <!-- tree 8 -->
          <_>
            <!-- root node -->
            <feature>
              <rects>
                <_>
                  5 14 6 4 -1.</_>
                <_>
                  4 15 6 2 2.</_></rects>
              <tilted>1</tilted></feature>
            <threshold>-2.2848930209875107e-002</threshold>
            <left_val>5.5716431140899658e-001</left_val>
            <right_val>-1.8923990428447723e-001</right_val></_></_>
        <_>
          <!-- tree 9 -->
          <_>
            <!-- root node -->
            <feature>
              <rects>
                <_>
                  8 3 8 4 -1.</_>
                <_>
                  8 4 8 2 2.</_></rects>
              <tilted>0</tilted></feature>
            <threshold>-1.3695419766008854e-002</threshold>
            <left_val>4.9848499894142151e-001</left_val>
            <right_val>-1.9575369358062744e-001</right_val></_></_>
        <_>
          <!-- tree 10 -->
          <_>
            <!-- root node -->
            <feature>
              <rects>
                <_>
                  0 10 20 2 -1.</_>
                <_>
                  5 10 10 2 2.</_></rects>
              <tilted>0</tilted></feature>
            <threshold>-8.1830285489559174e-003</threshold>
            <left_val>2.7442848682403564e-001</left_val>
            <right_val>-3.3467599749565125e-001</right_val></_></_>
        <_>
          <!-- tree 11 -->
          <_>
            <!-- root node -->
            <feature>
              <rects>
                <_>
                  20 23 2 1 -1.</_>
                <_>
                  20 23 1 1 2.</_></rects>
              <tilted>0</tilted></feature>
            <threshold>-4.0068131056614220e-004</threshold>
            <left_val>-5.3467357158660889e-001</left_val>
            <right_val>1.2643210589885712e-001</right_val></_></_>
        <_>
          <!-- tree 12 -->
          <_>
            <!-- root node -->
            <feature>
              <rects>
                <_>
                  8 0 8 4 -1.</_>
                <_>
                  8 1 8 2 2.</_></rects>
              <tilted>0</tilted></feature>
            <threshold>-1.9119290634989738e-002</threshold>
            <left_val>6.7906552553176880e-001</left_val>
            <right_val>-1.1650930345058441e-001</right_val></_></_>
        <_>
          <!-- tree 13 -->
          <_>
            <!-- root node -->
            <feature>
              <rects>
                <_>
                  17 8 2 8 -1.</_>
                <_>
                  17 8 1 8 2.</_></rects>
              <tilted>0</tilted></feature>
            <threshold>1.0963740060105920e-003</threshold>
            <left_val>-2.2685170173645020e-001</left_val>
            <right_val>2.2481399774551392e-001</right_val></_></_>
        <_>
          <!-- tree 14 -->
          <_>
            <!-- root node -->
            <feature>
              <rects>
                <_>
                  2 23 2 1 -1.</_>
                <_>
                  3 23 1 1 2.</_></rects>
              <tilted>0</tilted></feature>
            <threshold>-2.2997170162852854e-004</threshold>
            <left_val>-4.8390990495681763e-001</left_val>
            <right_val>1.4946919679641724e-001</right_val></_></_>
        <_>
          <!-- tree 15 -->
          <_>
            <!-- root node -->
            <feature>
              <rects>
                <_>
                  17 14 2 7 -1.</_>
                <_>
                  17 14 1 7 2.</_></rects>
              <tilted>1</tilted></feature>
            <threshold>1.8110789824277163e-003</threshold>
            <left_val>-2.1830239892005920e-001</left_val>
            <right_val>1.7976549267768860e-001</right_val></_></_>
        <_>
          <!-- tree 16 -->
          <_>
            <!-- root node -->
            <feature>
              <rects>
                <_>
                  8 4 6 8 -1.</_>
                <_>
                  8 4 3 4 2.</_>
                <_>
                  11 8 3 4 2.</_></rects>
              <tilted>0</tilted></feature>
            <threshold>7.4555068276822567e-003</threshold>
            <left_val>1.4026850461959839e-001</left_val>
            <right_val>-5.1625192165374756e-001</right_val></_></_>
        <_>
          <!-- tree 17 -->
          <_>
            <!-- root node -->
            <feature>
              <rects>
                <_>
                  17 7 4 1 -1.</_>
                <_>
                  18 8 2 1 2.</_></rects>
              <tilted>1</tilted></feature>
            <threshold>1.8525149673223495e-002</threshold>
            <left_val>-1.4113740064203739e-002</left_val>
            <right_val>8.7253439426422119e-001</right_val></_></_>
        <_>
          <!-- tree 18 -->
          <_>
            <!-- root node -->
            <feature>
              <rects>
                <_>
                  7 7 1 4 -1.</_>
                <_>
                  6 8 1 2 2.</_></rects>
              <tilted>1</tilted></feature>
            <threshold>2.4239949416369200e-003</threshold>
            <left_val>1.3533699512481689e-001</left_val>
            <right_val>-5.3888410329818726e-001</right_val></_></_>
        <_>
          <!-- tree 19 -->
          <_>
            <!-- root node -->
            <feature>
              <rects>
                <_>
                  18 1 5 3 -1.</_>
                <_>
                  17 2 5 1 3.</_></rects>
              <tilted>1</tilted></feature>
            <threshold>-1.8050709739327431e-002</threshold>
            <left_val>6.4520788192749023e-001</left_val>
            <right_val>-1.7232190072536469e-001</right_val></_></_>
        <_>
          <!-- tree 20 -->
          <_>
            <!-- root node -->
            <feature>
              <rects>
                <_>
                  7 14 5 3 -1.</_>
                <_>
                  6 15 5 1 3.</_></rects>
              <tilted>1</tilted></feature>
            <threshold>-1.4868759550154209e-002</threshold>
            <left_val>6.0491961240768433e-001</left_val>
            <right_val>-1.1372309923171997e-001</right_val></_></_>
        <_>
          <!-- tree 21 -->
          <_>
            <!-- root node -->
            <feature>
              <rects>
                <_>
                  7 13 10 4 -1.</_>
                <_>
                  7 14 10 2 2.</_></rects>
              <tilted>0</tilted></feature>
            <threshold>-1.2135869823396206e-002</threshold>
            <left_val>4.9730521440505981e-001</left_val>
            <right_val>-1.5676809847354889e-001</right_val></_></_>
        <_>
          <!-- tree 22 -->
          <_>
            <!-- root node -->
            <feature>
              <rects>
                <_>
                  6 10 2 6 -1.</_>
                <_>
                  6 12 2 2 3.</_></rects>
              <tilted>0</tilted></feature>
            <threshold>-1.3696659589186311e-003</threshold>
            <left_val>2.7089300751686096e-001</left_val>
            <right_val>-3.2479968667030334e-001</right_val></_></_></trees>
      <stage_threshold>-1.6151939630508423e+000</stage_threshold>
      <parent>6</parent>
      <next>-1</next></_>
    <_>
      <!-- stage 8 -->
      <trees>
        <_>
          <!-- tree 0 -->
          <_>
            <!-- root node -->
            <feature>
              <rects>
                <_>
                  9 2 3 7 -1.</_>
                <_>
                  10 3 1 7 3.</_></rects>
              <tilted>1</tilted></feature>
            <threshold>-2.7101300656795502e-002</threshold>
            <left_val>5.9601861238479614e-001</left_val>
            <right_val>-3.1043720245361328e-001</right_val></_></_>
        <_>
          <!-- tree 1 -->
          <_>
            <!-- root node -->
            <feature>
              <rects>
                <_>
                  18 9 6 11 -1.</_>
                <_>
                  18 9 3 11 2.</_></rects>
              <tilted>0</tilted></feature>
            <threshold>-4.0295831859111786e-002</threshold>
            <left_val>4.8561009764671326e-001</left_val>
            <right_val>-2.5148540735244751e-001</right_val></_></_>
        <_>
          <!-- tree 2 -->
          <_>
            <!-- root node -->
            <feature>
              <rects>
                <_>
                  8 1 11 8 -1.</_>
                <_>
                  6 3 11 4 2.</_></rects>
              <tilted>1</tilted></feature>
            <threshold>-2.1525690332055092e-002</threshold>
            <left_val>2.9389458894729614e-001</left_val>
            <right_val>-4.3490400910377502e-001</right_val></_></_>
        <_>
          <!-- tree 3 -->
          <_>
            <!-- root node -->
            <feature>
              <rects>
                <_>
                  18 9 3 8 -1.</_>
                <_>
                  19 9 1 8 3.</_></rects>
              <tilted>0</tilted></feature>
            <threshold>-1.0052880272269249e-002</threshold>
            <left_val>2.5685429573059082e-001</left_val>
            <right_val>-1.2758739292621613e-001</right_val></_></_>
        <_>
          <!-- tree 4 -->
          <_>
            <!-- root node -->
            <feature>
              <rects>
                <_>
                  3 9 3 8 -1.</_>
                <_>
                  4 9 1 8 3.</_></rects>
              <tilted>0</tilted></feature>
            <threshold>-6.0037299990653992e-003</threshold>
            <left_val>3.0121448636054993e-001</left_val>
            <right_val>-3.6292129755020142e-001</right_val></_></_>
        <_>
          <!-- tree 5 -->
          <_>
            <!-- root node -->
            <feature>
              <rects>
                <_>
                  15 16 2 8 -1.</_>
                <_>
                  15 18 2 4 2.</_></rects>
              <tilted>0</tilted></feature>
            <threshold>-3.4454490523785353e-003</threshold>
            <left_val>2.2394439578056335e-001</left_val>
            <right_val>-2.7660170197486877e-001</right_val></_></_>
        <_>
          <!-- tree 6 -->
          <_>
            <!-- root node -->
            <feature>
              <rects>
                <_>
                  4 0 13 8 -1.</_>
                <_>
                  4 2 13 4 2.</_></rects>
              <tilted>0</tilted></feature>
            <threshold>-1.5144160017371178e-002</threshold>
            <left_val>2.3031429946422577e-001</left_val>
            <right_val>-3.8050061464309692e-001</right_val></_></_>
        <_>
          <!-- tree 7 -->
          <_>
            <!-- root node -->
            <feature>
              <rects>
                <_>
                  18 1 4 3 -1.</_>
                <_>
                  17 2 4 1 3.</_></rects>
              <tilted>1</tilted></feature>
            <threshold>-1.4492070302367210e-002</threshold>
            <left_val>5.6564992666244507e-001</left_val>
            <right_val>-1.9135850667953491e-001</right_val></_></_>
        <_>
          <!-- tree 8 -->
          <_>
            <!-- root node -->
            <feature>
              <rects>
                <_>
                  6 5 4 2 -1.</_>
                <_>
                  6 5 2 1 2.</_>
                <_>
                  8 6 2 1 2.</_></rects>
              <tilted>0</tilted></feature>
            <threshold>4.2089228518307209e-003</threshold>
            <left_val>-1.6502739489078522e-001</left_val>
            <right_val>5.2330827713012695e-001</right_val></_></_>
        <_>
          <!-- tree 9 -->
          <_>
            <!-- root node -->
            <feature>
              <rects>
                <_>
                  11 12 5 6 -1.</_>
                <_>
                  11 14 5 2 3.</_></rects>
              <tilted>0</tilted></feature>
            <threshold>-1.1035500094294548e-002</threshold>
            <left_val>2.7211460471153259e-001</left_val>
            <right_val>-1.6170570254325867e-001</right_val></_></_>
        <_>
          <!-- tree 10 -->
          <_>
            <!-- root node -->
            <feature>
              <rects>
                <_>
                  6 1 3 4 -1.</_>
                <_>
                  7 2 1 4 3.</_></rects>
              <tilted>1</tilted></feature>
            <threshold>-2.4222519248723984e-002</threshold>
            <left_val>8.4010708332061768e-001</left_val>
            <right_val>-1.0415810346603394e-001</right_val></_></_>
        <_>
          <!-- tree 11 -->
          <_>
            <!-- root node -->
            <feature>
              <rects>
                <_>
                  17 14 3 5 -1.</_>
                <_>
                  18 15 1 5 3.</_></rects>
              <tilted>1</tilted></feature>
            <threshold>-1.1617619544267654e-002</threshold>
            <left_val>4.1676670312881470e-001</left_val>
            <right_val>-9.3993432819843292e-002</right_val></_></_>
        <_>
          <!-- tree 12 -->
          <_>
            <!-- root node -->
            <feature>
              <rects>
                <_>
                  9 0 3 1 -1.</_>
                <_>
                  10 0 1 1 3.</_></rects>
              <tilted>0</tilted></feature>
            <threshold>-5.1658792654052377e-004</threshold>
            <left_val>-5.4809337854385376e-001</left_val>
            <right_val>1.5184620022773743e-001</right_val></_></_>
        <_>
          <!-- tree 13 -->
          <_>
            <!-- root node -->
            <feature>
              <rects>
                <_>
                  12 0 2 11 -1.</_>
                <_>
                  12 0 1 11 2.</_></rects>
              <tilted>1</tilted></feature>
            <threshold>-3.2564159482717514e-002</threshold>
            <left_val>-7.4681431055068970e-001</left_val>
            <right_val>-1.3473950093612075e-003</right_val></_></_>
        <_>
          <!-- tree 14 -->
          <_>
            <!-- root node -->
            <feature>
              <rects>
                <_>
                  12 0 11 2 -1.</_>
                <_>
                  12 0 11 1 2.</_></rects>
              <tilted>1</tilted></feature>
            <threshold>7.5071438914164901e-004</threshold>
            <left_val>1.9782820343971252e-001</left_val>
            <right_val>-4.0824401378631592e-001</right_val></_></_>
        <_>
          <!-- tree 15 -->
          <_>
            <!-- root node -->
            <feature>
              <rects>
                <_>
                  23 4 1 2 -1.</_>
                <_>
                  23 5 1 1 2.</_></rects>
              <tilted>0</tilted></feature>
            <threshold>-6.6110317129641771e-004</threshold>
            <left_val>-5.6892377138137817e-001</left_val>
            <right_val>1.0511519759893417e-001</right_val></_></_>
        <_>
          <!-- tree 16 -->
          <_>
            <!-- root node -->
            <feature>
              <rects>
                <_>
                  2 23 3 1 -1.</_>
                <_>
                  3 23 1 1 3.</_></rects>
              <tilted>0</tilted></feature>
            <threshold>1.5592480485793203e-004</threshold>
            <left_val>1.6892270743846893e-001</left_val>
            <right_val>-4.2103078961372375e-001</right_val></_></_>
        <_>
          <!-- tree 17 -->
          <_>
            <!-- root node -->
            <feature>
              <rects>
                <_>
                  20 15 2 6 -1.</_>
                <_>
                  20 15 1 6 2.</_></rects>
              <tilted>1</tilted></feature>
            <threshold>1.7100719735026360e-002</threshold>
            <left_val>-9.8741643130779266e-002</left_val>
            <right_val>7.2820502519607544e-001</right_val></_></_>
        <_>
          <!-- tree 18 -->
          <_>
            <!-- root node -->
            <feature>
              <rects>
                <_>
                  6 14 5 3 -1.</_>
                <_>
                  5 15 5 1 3.</_></rects>
              <tilted>1</tilted></feature>
            <threshold>-1.9371699541807175e-002</threshold>
            <left_val>5.6715881824493408e-001</left_val>
            <right_val>-1.5325729548931122e-001</right_val></_></_>
        <_>
          <!-- tree 19 -->
          <_>
            <!-- root node -->
            <feature>
              <rects>
                <_>
                  23 1 1 6 -1.</_>
                <_>
                  23 3 1 2 3.</_></rects>
              <tilted>0</tilted></feature>
            <threshold>-1.1218329891562462e-003</threshold>
            <left_val>-3.7944081425666809e-001</left_val>
            <right_val>1.3850189745426178e-001</right_val></_></_>
        <_>
          <!-- tree 20 -->
          <_>
            <!-- root node -->
            <feature>
              <rects>
                <_>
                  8 8 2 2 -1.</_>
                <_>
                  8 8 1 2 2.</_></rects>
              <tilted>1</tilted></feature>
            <threshold>1.8092599930241704e-003</threshold>
            <left_val>-3.7182530760765076e-001</left_val>
            <right_val>1.9328589737415314e-001</right_val></_></_>
        <_>
          <!-- tree 21 -->
          <_>
            <!-- root node -->
            <feature>
              <rects>
                <_>
                  3 0 19 10 -1.</_>
                <_>
                  3 5 19 5 2.</_></rects>
              <tilted>0</tilted></feature>
            <threshold>-1.0693389922380447e-001</threshold>
            <left_val>3.9135518670082092e-001</left_val>
            <right_val>-1.7941269278526306e-001</right_val></_></_>
        <_>
          <!-- tree 22 -->
          <_>
            <!-- root node -->
            <feature>
              <rects>
                <_>
                  1 23 4 1 -1.</_>
                <_>
                  2 23 2 1 2.</_></rects>
              <tilted>0</tilted></feature>
            <threshold>-4.0812959196045995e-004</threshold>
            <left_val>-4.7262421250343323e-001</left_val>
            <right_val>1.5119889378547668e-001</right_val></_></_></trees>
      <stage_threshold>-1.6097999811172485e+000</stage_threshold>
      <parent>7</parent>
      <next>-1</next></_>
    <_>
      <!-- stage 9 -->
      <trees>
        <_>
          <!-- tree 0 -->
          <_>
            <!-- root node -->
            <feature>
              <rects>
                <_>
                  0 3 24 3 -1.</_>
                <_>
                  8 4 8 1 9.</_></rects>
              <tilted>0</tilted></feature>
            <threshold>-1.2505750358104706e-001</threshold>
            <left_val>6.5224927663803101e-001</left_val>
            <right_val>-2.4875299632549286e-001</right_val></_></_>
        <_>
          <!-- tree 1 -->
          <_>
            <!-- root node -->
            <feature>
              <rects>
                <_>
                  12 18 12 1 -1.</_>
                <_>
                  15 18 6 1 2.</_></rects>
              <tilted>0</tilted></feature>
            <threshold>-2.0222989842295647e-003</threshold>
            <left_val>2.5560361146926880e-001</left_val>
            <right_val>-3.5777288675308228e-001</right_val></_></_>
        <_>
          <!-- tree 2 -->
          <_>
            <!-- root node -->
            <feature>
              <rects>
                <_>
                  4 6 2 8 -1.</_>
                <_>
                  4 6 1 4 2.</_>
                <_>
                  5 10 1 4 2.</_></rects>
              <tilted>0</tilted></feature>
            <threshold>2.6056070346385241e-003</threshold>
            <left_val>-3.9190858602523804e-001</left_val>
            <right_val>2.9062178730964661e-001</right_val></_></_>
        <_>
          <!-- tree 3 -->
          <_>
            <!-- root node -->
            <feature>
              <rects>
                <_>
                  21 14 2 8 -1.</_>
                <_>
                  21 14 1 8 2.</_></rects>
              <tilted>1</tilted></feature>
            <threshold>-1.7055060714483261e-002</threshold>
            <left_val>5.1147449016571045e-001</left_val>
            <right_val>-2.2165180742740631e-001</right_val></_></_>
        <_>
          <!-- tree 4 -->
          <_>
            <!-- root node -->
            <feature>
              <rects>
                <_>
                  7 12 6 4 -1.</_>
                <_>
                  6 13 6 2 2.</_></rects>
              <tilted>1</tilted></feature>
            <threshold>1.0948549956083298e-002</threshold>
            <left_val>-3.4350690245628357e-001</left_val>
            <right_val>3.8779011368751526e-001</right_val></_></_>
        <_>
          <!-- tree 5 -->
          <_>
            <!-- root node -->
            <feature>
              <rects>
                <_>
                  8 5 8 4 -1.</_>
                <_>
                  8 6 8 2 2.</_></rects>
              <tilted>0</tilted></feature>
            <threshold>1.6244579106569290e-002</threshold>
            <left_val>-1.9646729528903961e-001</left_val>
            <right_val>4.5758119225502014e-001</right_val></_></_>
        <_>
          <!-- tree 6 -->
          <_>
            <!-- root node -->
            <feature>
              <rects>
                <_>
                  0 18 12 1 -1.</_>
                <_>
                  3 18 6 1 2.</_></rects>
              <tilted>0</tilted></feature>
            <threshold>-5.8603571960702538e-004</threshold>
            <left_val>2.2933469712734222e-001</left_val>
            <right_val>-4.5717358589172363e-001</right_val></_></_>
        <_>
          <!-- tree 7 -->
          <_>
            <!-- root node -->
            <feature>
              <rects>
                <_>
                  16 2 5 2 -1.</_>
                <_>
                  16 2 5 1 2.</_></rects>
              <tilted>1</tilted></feature>
            <threshold>-1.3645590282976627e-002</threshold>
            <left_val>5.5306261777877808e-001</left_val>
            <right_val>-1.3432249426841736e-001</right_val></_></_>
        <_>
          <!-- tree 8 -->
          <_>
            <!-- root node -->
            <feature>
              <rects>
                <_>
                  6 13 6 3 -1.</_>
                <_>
                  5 14 6 1 3.</_></rects>
              <tilted>1</tilted></feature>
            <threshold>-2.8270160779356956e-002</threshold>
            <left_val>7.1053349971771240e-001</left_val>
            <right_val>-8.9065432548522949e-002</right_val></_></_>
        <_>
          <!-- tree 9 -->
          <_>
            <!-- root node -->
            <feature>
              <rects>
                <_>
                  12 6 3 6 -1.</_>
                <_>
                  10 8 3 2 3.</_></rects>
              <tilted>1</tilted></feature>
            <threshold>-3.7033598870038986e-002</threshold>
            <left_val>-4.0131971240043640e-001</left_val>
            <right_val>3.5289179533720016e-002</right_val></_></_>
        <_>
          <!-- tree 10 -->
          <_>
            <!-- root node -->
            <feature>
              <rects>
                <_>
                  12 6 6 3 -1.</_>
                <_>
                  14 8 2 3 3.</_></rects>
              <tilted>1</tilted></feature>
            <threshold>-7.5930580496788025e-003</threshold>
            <left_val>2.1975809335708618e-001</left_val>
            <right_val>-3.8940981030464172e-001</right_val></_></_>
        <_>
          <!-- tree 11 -->
          <_>
            <!-- root node -->
            <feature>
              <rects>
                <_>
                  23 1 1 6 -1.</_>
                <_>
                  23 3 1 2 3.</_></rects>
              <tilted>0</tilted></feature>
            <threshold>1.6988300485536456e-003</threshold>
            <left_val>1.1528860032558441e-001</left_val>
            <right_val>-5.1789838075637817e-001</right_val></_></_>
        <_>
          <!-- tree 12 -->
          <_>
            <!-- root node -->
            <feature>
              <rects>
                <_>
                  0 5 1 6 -1.</_>
                <_>
                  0 7 1 2 3.</_></rects>
              <tilted>0</tilted></feature>
            <threshold>2.7144290506839752e-003</threshold>
            <left_val>1.0141459852457047e-001</left_val>
            <right_val>-6.3699352741241455e-001</right_val></_></_>
        <_>
          <!-- tree 13 -->
          <_>
            <!-- root node -->
            <feature>
              <rects>
                <_>
                  18 1 5 3 -1.</_>
                <_>
                  17 2 5 1 3.</_></rects>
              <tilted>1</tilted></feature>
            <threshold>-3.4155160188674927e-002</threshold>
            <left_val>6.9244599342346191e-001</left_val>
            <right_val>-9.1498911380767822e-002</right_val></_></_>
        <_>
          <!-- tree 14 -->
          <_>
            <!-- root node -->
            <feature>
              <rects>
                <_>
                  8 12 7 9 -1.</_>
                <_>
                  8 15 7 3 3.</_></rects>
              <tilted>0</tilted></feature>
            <threshold>-5.9795249253511429e-002</threshold>
            <left_val>7.5787758827209473e-001</left_val>
            <right_val>-7.0933751761913300e-002</right_val></_></_>
        <_>
          <!-- tree 15 -->
          <_>
            <!-- root node -->
            <feature>
              <rects>
                <_>
                  23 1 1 6 -1.</_>
                <_>
                  23 3 1 2 3.</_></rects>
              <tilted>0</tilted></feature>
            <threshold>-1.0843520285561681e-003</threshold>
            <left_val>-4.0919479727745056e-001</left_val>
            <right_val>1.3585349917411804e-001</right_val></_></_>
        <_>
          <!-- tree 16 -->
          <_>
            <!-- root node -->
            <feature>
              <rects>
                <_>
                  5 0 14 6 -1.</_>
                <_>
                  5 3 14 3 2.</_></rects>
              <tilted>0</tilted></feature>
            <threshold>-5.7803500443696976e-002</threshold>
            <left_val>3.2609200477600098e-001</left_val>
            <right_val>-2.0564749836921692e-001</right_val></_></_>
        <_>
          <!-- tree 17 -->
          <_>
            <!-- root node -->
            <feature>
              <rects>
                <_>
                  12 1 2 10 -1.</_>
                <_>
                  12 1 1 10 2.</_></rects>
              <tilted>1</tilted></feature>
            <threshold>-4.0930658578872681e-002</threshold>
            <left_val>-7.1302658319473267e-001</left_val>
            <right_val>5.2783312276005745e-003</right_val></_></_>
        <_>
          <!-- tree 18 -->
          <_>
            <!-- root node -->
            <feature>
              <rects>
                <_>
                  12 1 10 2 -1.</_>
                <_>
                  12 1 10 1 2.</_></rects>
              <tilted>1</tilted></feature>
            <threshold>4.8511838540434837e-003</threshold>
            <left_val>1.3489709794521332e-001</left_val>
            <right_val>-5.2550899982452393e-001</right_val></_></_>
        <_>
          <!-- tree 19 -->
          <_>
            <!-- root node -->
            <feature>
              <rects>
                <_>
                  23 1 1 6 -1.</_>
                <_>
                  23 3 1 2 3.</_></rects>
              <tilted>0</tilted></feature>
            <threshold>4.1295532137155533e-003</threshold>
            <left_val>3.7357028573751450e-002</left_val>
            <right_val>-4.6924179792404175e-001</right_val></_></_>
        <_>
          <!-- tree 20 -->
          <_>
            <!-- root node -->
            <feature>
              <rects>
                <_>
                  6 1 3 5 -1.</_>
                <_>
                  7 2 1 5 3.</_></rects>
              <tilted>1</tilted></feature>
            <threshold>-3.4552369266748428e-002</threshold>
            <left_val>8.3979058265686035e-001</left_val>
            <right_val>-8.1792369484901428e-002</right_val></_></_>
        <_>
          <!-- tree 21 -->
          <_>
            <!-- root node -->
            <feature>
              <rects>
                <_>
                  17 6 2 4 -1.</_>
                <_>
                  18 6 1 2 2.</_>
                <_>
                  17 8 1 2 2.</_></rects>
              <tilted>0</tilted></feature>
            <threshold>1.6403229674324393e-003</threshold>
            <left_val>-7.4339896440505981e-002</left_val>
            <right_val>2.1019479632377625e-001</right_val></_></_>
        <_>
          <!-- tree 22 -->
          <_>
            <!-- root node -->
            <feature>
              <rects>
                <_>
                  5 6 2 4 -1.</_>
                <_>
                  5 6 1 2 2.</_>
                <_>
                  6 8 1 2 2.</_></rects>
              <tilted>0</tilted></feature>
            <threshold>9.5186888938769698e-004</threshold>
            <left_val>-2.7711990475654602e-001</left_val>
            <right_val>2.4966929852962494e-001</right_val></_></_>
        <_>
          <!-- tree 23 -->
          <_>
            <!-- root node -->
            <feature>
              <rects>
                <_>
                  20 4 3 15 -1.</_>
                <_>
                  15 9 3 5 3.</_></rects>
              <tilted>1</tilted></feature>
            <threshold>-1.2185060232877731e-001</threshold>
            <left_val>-7.6785528659820557e-001</left_val>
            <right_val>2.0035229623317719e-002</right_val></_></_>
        <_>
          <!-- tree 24 -->
          <_>
            <!-- root node -->
            <feature>
              <rects>
                <_>
                  4 4 15 3 -1.</_>
                <_>
                  9 9 5 3 3.</_></rects>
              <tilted>1</tilted></feature>
            <threshold>1.8315130844712257e-002</threshold>
            <left_val>1.3313780725002289e-001</left_val>
            <right_val>-5.2162170410156250e-001</right_val></_></_>
        <_>
          <!-- tree 25 -->
          <_>
            <!-- root node -->
            <feature>
              <rects>
                <_>
                  23 1 1 6 -1.</_>
                <_>
                  23 3 1 2 3.</_></rects>
              <tilted>0</tilted></feature>
            <threshold>3.9537649718113244e-004</threshold>
            <left_val>5.9444580227136612e-002</left_val>
            <right_val>-1.5266670286655426e-001</right_val></_></_>
        <_>
          <!-- tree 26 -->
          <_>
            <!-- root node -->
            <feature>
              <rects>
                <_>
                  0 1 1 6 -1.</_>
                <_>
                  0 3 1 2 3.</_></rects>
              <tilted>0</tilted></feature>
            <threshold>4.1277678683400154e-003</threshold>
            <left_val>9.0267702937126160e-002</left_val>
            <right_val>-7.0400297641754150e-001</right_val></_></_></trees>
      <stage_threshold>-1.5544919967651367e+000</stage_threshold>
      <parent>8</parent>
      <next>-1</next></_>
    <_>
      <!-- stage 10 -->
      <trees>
        <_>
          <!-- tree 0 -->
          <_>
            <!-- root node -->
            <feature>
              <rects>
                <_>
                  0 3 24 19 -1.</_>
                <_>
                  8 3 8 19 3.</_></rects>
              <tilted>0</tilted></feature>
            <threshold>-2.0793420076370239e-001</threshold>
            <left_val>4.7953519225120544e-001</left_val>
            <right_val>-3.2964348793029785e-001</right_val></_></_>
        <_>
          <!-- tree 1 -->
          <_>
            <!-- root node -->
            <feature>
              <rects>
                <_>
                  11 6 10 1 -1.</_>
                <_>
                  11 6 5 1 2.</_></rects>
              <tilted>0</tilted></feature>
            <threshold>2.7706939727067947e-003</threshold>
            <left_val>-4.9107289314270020e-001</left_val>
            <right_val>2.7721661329269409e-001</right_val></_></_>
        <_>
          <!-- tree 2 -->
          <_>
            <!-- root node -->
            <feature>
              <rects>
                <_>
                  1 10 6 4 -1.</_>
                <_>
                  3 10 2 4 3.</_></rects>
              <tilted>0</tilted></feature>
            <threshold>-2.1402349229902029e-003</threshold>
            <left_val>1.8520529568195343e-001</left_val>
            <right_val>-6.0414540767669678e-001</right_val></_></_>
        <_>
          <!-- tree 3 -->
          <_>
            <!-- root node -->
            <feature>
              <rects>
                <_>
                  12 12 2 6 -1.</_>
                <_>
                  12 14 2 2 3.</_></rects>
              <tilted>0</tilted></feature>
            <threshold>-4.8064398579299450e-003</threshold>
            <left_val>2.3293299973011017e-001</left_val>
            <right_val>-1.9099450111389160e-001</right_val></_></_>
        <_>
          <!-- tree 4 -->
          <_>
            <!-- root node -->
            <feature>
              <rects>
                <_>
                  8 3 3 5 -1.</_>
                <_>
                  9 4 1 5 3.</_></rects>
              <tilted>1</tilted></feature>
            <threshold>-3.0823560431599617e-002</threshold>
            <left_val>5.8444327116012573e-001</left_val>
            <right_val>-1.6365349292755127e-001</right_val></_></_>
        <_>
          <!-- tree 5 -->
          <_>
            <!-- root node -->
            <feature>
              <rects>
                <_>
                  7 18 11 6 -1.</_>
                <_>
                  7 20 11 2 3.</_></rects>
              <tilted>0</tilted></feature>
            <threshold>-3.0650699511170387e-002</threshold>
            <left_val>3.5849231481552124e-001</left_val>
            <right_val>-2.5264200568199158e-001</right_val></_></_>
        <_>
          <!-- tree 6 -->
          <_>
            <!-- root node -->
            <feature>
              <rects>
                <_>
                  9 20 6 3 -1.</_>
                <_>
                  9 21 6 1 3.</_></rects>
              <tilted>0</tilted></feature>
            <threshold>7.5239217840135098e-003</threshold>
            <left_val>-1.9724190235137939e-001</left_val>
            <right_val>5.1872771978378296e-001</right_val></_></_>
        <_>
          <!-- tree 7 -->
          <_>
            <!-- root node -->
            <feature>
              <rects>
                <_>
                  8 19 8 3 -1.</_>
                <_>
                  8 20 8 1 3.</_></rects>
              <tilted>0</tilted></feature>
            <threshold>8.5314270108938217e-003</threshold>
            <left_val>-1.3024969398975372e-001</left_val>
            <right_val>6.0303652286529541e-001</right_val></_></_>
        <_>
          <!-- tree 8 -->
          <_>
            <!-- root node -->
            <feature>
              <rects>
                <_>
                  4 20 15 2 -1.</_>
                <_>
                  9 20 5 2 3.</_></rects>
              <tilted>0</tilted></feature>
            <threshold>-7.1644941344857216e-003</threshold>
            <left_val>2.7229261398315430e-001</left_val>
            <right_val>-2.5357368588447571e-001</right_val></_></_>
        <_>
          <!-- tree 9 -->
          <_>
            <!-- root node -->
            <feature>
              <rects>
                <_>
                  16 2 5 2 -1.</_>
                <_>
                  16 2 5 1 2.</_></rects>
              <tilted>1</tilted></feature>
            <threshold>1.3960720039904118e-002</threshold>
            <left_val>-8.1117503345012665e-002</left_val>
            <right_val>5.1968938112258911e-001</right_val></_></_>
        <_>
          <!-- tree 10 -->
          <_>
            <!-- root node -->
            <feature>
              <rects>
                <_>
                  7 0 4 6 -1.</_>
                <_>
                  8 1 2 6 2.</_></rects>
              <tilted>1</tilted></feature>
            <threshold>-1.8962580710649490e-002</threshold>
            <left_val>5.4469978809356689e-001</left_val>
            <right_val>-1.6528460383415222e-001</right_val></_></_>
        <_>
          <!-- tree 11 -->
          <_>
            <!-- root node -->
            <feature>
              <rects>
                <_>
                  13 12 4 1 -1.</_>
                <_>
                  14 13 2 1 2.</_></rects>
              <tilted>1</tilted></feature>
            <threshold>2.2177449427545071e-003</threshold>
            <left_val>-4.4643770903348923e-002</left_val>
            <right_val>1.7022289335727692e-001</right_val></_></_>
        <_>
          <!-- tree 12 -->
          <_>
            <!-- root node -->
            <feature>
              <rects>
                <_>
                  11 12 1 4 -1.</_>
                <_>
                  10 13 1 2 2.</_></rects>
              <tilted>1</tilted></feature>
            <threshold>-8.4470557339955121e-005</threshold>
            <left_val>1.9447889924049377e-001</left_val>
            <right_val>-3.6449858546257019e-001</right_val></_></_>
        <_>
          <!-- tree 13 -->
          <_>
            <!-- root node -->
            <feature>
              <rects>
                <_>
                  10 19 4 5 -1.</_>
                <_>
                  11 19 2 5 2.</_></rects>
              <tilted>0</tilted></feature>
            <threshold>-4.1584768332540989e-003</threshold>
            <left_val>-6.0879361629486084e-001</left_val>
            <right_val>1.0153809934854507e-001</right_val></_></_>
        <_>
          <!-- tree 14 -->
          <_>
            <!-- root node -->
            <feature>
              <rects>
                <_>
                  10 23 3 1 -1.</_>
                <_>
                  11 23 1 1 3.</_></rects>
              <tilted>0</tilted></feature>
            <threshold>4.7817049198783934e-004</threshold>
            <left_val>1.2203750014305115e-001</left_val>
            <right_val>-5.1684898138046265e-001</right_val></_></_>
        <_>
          <!-- tree 15 -->
          <_>
            <!-- root node -->
            <feature>
              <rects>
                <_>
                  13 6 6 1 -1.</_>
                <_>
                  13 6 3 1 2.</_></rects>
              <tilted>0</tilted></feature>
            <threshold>7.4398308061063290e-003</threshold>
            <left_val>-9.8119258880615234e-002</left_val>
            <right_val>2.6526468992233276e-001</right_val></_></_>
        <_>
          <!-- tree 16 -->
          <_>
            <!-- root node -->
            <feature>
              <rects>
                <_>
                  6 16 2 4 -1.</_>
                <_>
                  7 16 1 4 2.</_></rects>
              <tilted>0</tilted></feature>
            <threshold>2.8268619644222781e-005</threshold>
            <left_val>-3.1031158566474915e-001</left_val>
            <right_val>1.8793840706348419e-001</right_val></_></_>
        <_>
          <!-- tree 17 -->
          <_>
            <!-- root node -->
            <feature>
              <rects>
                <_>
                  16 7 2 4 -1.</_>
                <_>
                  17 7 1 2 2.</_>
                <_>
                  16 9 1 2 2.</_></rects>
              <tilted>0</tilted></feature>
            <threshold>-1.0264130105497316e-004</threshold>
            <left_val>1.0879720002412796e-001</left_val>
            <right_val>-1.6134209930896759e-001</right_val></_></_>
        <_>
          <!-- tree 18 -->
          <_>
            <!-- root node -->
            <feature>
              <rects>
                <_>
                  8 9 3 4 -1.</_>
                <_>
                  9 10 1 4 3.</_></rects>
              <tilted>1</tilted></feature>
            <threshold>-4.3363979784771800e-004</threshold>
            <left_val>1.8629969656467438e-001</left_val>
            <right_val>-3.2445770502090454e-001</right_val></_></_>
        <_>
          <!-- tree 19 -->
          <_>
            <!-- root node -->
            <feature>
              <rects>
                <_>
                  16 5 4 3 -1.</_>
                <_>
                  16 6 4 1 3.</_></rects>
              <tilted>0</tilted></feature>
            <threshold>-1.6753099858760834e-002</threshold>
            <left_val>-8.7425708770751953e-001</left_val>
            <right_val>1.1089649982750416e-002</right_val></_></_>
        <_>
          <!-- tree 20 -->
          <_>
            <!-- root node -->
            <feature>
              <rects>
                <_>
                  4 5 4 3 -1.</_>
                <_>
                  4 6 4 1 3.</_></rects>
              <tilted>0</tilted></feature>
            <threshold>-1.7894529446493834e-004</threshold>
            <left_val>1.9447240233421326e-001</left_val>
            <right_val>-2.9479208588600159e-001</right_val></_></_>
        <_>
          <!-- tree 21 -->
          <_>
            <!-- root node -->
            <feature>
              <rects>
                <_>
                  19 16 3 4 -1.</_>
                <_>
                  20 17 1 4 3.</_></rects>
              <tilted>1</tilted></feature>
            <threshold>-2.0547039806842804e-002</threshold>
            <left_val>6.1185377836227417e-001</left_val>
            <right_val>-1.3936039805412292e-001</right_val></_></_>
        <_>
          <!-- tree 22 -->
          <_>
            <!-- root node -->
            <feature>
              <rects>
                <_>
                  2 19 20 1 -1.</_>
                <_>
                  7 19 10 1 2.</_></rects>
              <tilted>0</tilted></feature>
            <threshold>-2.3642050102353096e-002</threshold>
            <left_val>6.0022467374801636e-001</left_val>
            <right_val>-8.1145137548446655e-002</right_val></_></_>
        <_>
          <!-- tree 23 -->
          <_>
            <!-- root node -->
            <feature>
              <rects>
                <_>
                  13 4 7 9 -1.</_>
                <_>
                  10 7 7 3 3.</_></rects>
              <tilted>1</tilted></feature>
            <threshold>-3.9314370602369308e-002</threshold>
            <left_val>1.7357109487056732e-001</left_val>
            <right_val>-1.3669849932193756e-001</right_val></_></_>
        <_>
          <!-- tree 24 -->
          <_>
            <!-- root node -->
            <feature>
              <rects>
                <_>
                  3 23 3 1 -1.</_>
                <_>
                  4 23 1 1 3.</_></rects>
              <tilted>0</tilted></feature>
            <threshold>1.2640190543606877e-003</threshold>
            <left_val>7.3355302214622498e-002</left_val>
            <right_val>-7.8258597850799561e-001</right_val></_></_>
        <_>
          <!-- tree 25 -->
          <_>
            <!-- root node -->
            <feature>
              <rects>
                <_>
                  23 10 1 12 -1.</_>
                <_>
                  23 16 1 6 2.</_></rects>
              <tilted>0</tilted></feature>
            <threshold>1.3535600155591965e-003</threshold>
            <left_val>1.2460979819297791e-001</left_val>
            <right_val>-2.4021610617637634e-001</right_val></_></_>
        <_>
          <!-- tree 26 -->
          <_>
            <!-- root node -->
            <feature>
              <rects>
                <_>
                  3 0 3 1 -1.</_>
                <_>
                  4 0 1 1 3.</_></rects>
              <tilted>0</tilted></feature>
            <threshold>3.4839200088754296e-004</threshold>
            <left_val>1.2663240730762482e-001</left_val>
            <right_val>-4.4258469343185425e-001</right_val></_></_>
        <_>
          <!-- tree 27 -->
          <_>
            <!-- root node -->
            <feature>
              <rects>
                <_>
                  15 1 7 3 -1.</_>
                <_>
                  14 2 7 1 3.</_></rects>
              <tilted>1</tilted></feature>
            <threshold>-2.2196039557456970e-002</threshold>
            <left_val>3.1475579738616943e-001</left_val>
            <right_val>-1.0457939654588699e-001</right_val></_></_>
        <_>
          <!-- tree 28 -->
          <_>
            <!-- root node -->
            <feature>
              <rects>
                <_>
                  7 0 3 7 -1.</_>
                <_>
                  8 1 1 7 3.</_></rects>
              <tilted>1</tilted></feature>
            <threshold>-3.0268250033259392e-002</threshold>
            <left_val>7.0474839210510254e-001</left_val>
            <right_val>-9.1982647776603699e-002</right_val></_></_>
        <_>
          <!-- tree 29 -->
          <_>
            <!-- root node -->
            <feature>
              <rects>
                <_>
                  13 0 1 8 -1.</_>
                <_>
                  13 2 1 4 2.</_></rects>
              <tilted>0</tilted></feature>
            <threshold>-5.2619358757510781e-004</threshold>
            <left_val>1.1396670341491699e-001</left_val>
            <right_val>-2.0766870677471161e-001</right_val></_></_></trees>
      <stage_threshold>-1.5962539911270142e+000</stage_threshold>
      <parent>9</parent>
      <next>-1</next></_>
    <_>
      <!-- stage 11 -->
      <trees>
        <_>
          <!-- tree 0 -->
          <_>
            <!-- root node -->
            <feature>
              <rects>
                <_>
                  4 4 10 2 -1.</_>
                <_>
                  4 4 5 1 2.</_>
                <_>
                  9 5 5 1 2.</_></rects>
              <tilted>0</tilted></feature>
            <threshold>1.1055430397391319e-002</threshold>
            <left_val>-2.5680708885192871e-001</left_val>
            <right_val>5.7484978437423706e-001</right_val></_></_>
        <_>
          <!-- tree 1 -->
          <_>
            <!-- root node -->
            <feature>
              <rects>
                <_>
                  18 3 6 17 -1.</_>
                <_>
                  18 3 3 17 2.</_></rects>
              <tilted>0</tilted></feature>
            <threshold>-6.5367937088012695e-002</threshold>
            <left_val>3.9885070919990540e-001</left_val>
            <right_val>-2.2019580006599426e-001</right_val></_></_>
        <_>
          <!-- tree 2 -->
          <_>
            <!-- root node -->
            <feature>
              <rects>
                <_>
                  6 7 2 4 -1.</_>
                <_>
                  6 7 1 2 2.</_>
                <_>
                  7 9 1 2 2.</_></rects>
              <tilted>0</tilted></feature>
            <threshold>-1.5694559551775455e-003</threshold>
            <left_val>2.5239959359169006e-001</left_val>
            <right_val>-4.5697098970413208e-001</right_val></_></_>
        <_>
          <!-- tree 3 -->
          <_>
            <!-- root node -->
            <feature>
              <rects>
                <_>
                  19 14 4 5 -1.</_>
                <_>
                  20 15 2 5 2.</_></rects>
              <tilted>1</tilted></feature>
            <threshold>-1.1479780077934265e-002</threshold>
            <left_val>1.9830049574375153e-001</left_val>
            <right_val>-2.5447759032249451e-001</right_val></_></_>
        <_>
          <!-- tree 4 -->
          <_>
            <!-- root node -->
            <feature>
              <rects>
                <_>
                  1 9 6 10 -1.</_>
                <_>
                  3 9 2 10 3.</_></rects>
              <tilted>0</tilted></feature>
            <threshold>-2.6486709713935852e-002</threshold>
            <left_val>2.9466900229454041e-001</left_val>
            <right_val>-2.9520818591117859e-001</right_val></_></_>
        <_>
          <!-- tree 5 -->
          <_>
            <!-- root node -->
            <feature>
              <rects>
                <_>
                  12 12 4 6 -1.</_>
                <_>
                  12 14 4 2 3.</_></rects>
              <tilted>0</tilted></feature>
            <threshold>-1.5274070203304291e-002</threshold>
            <left_val>2.4120630323886871e-001</left_val>
            <right_val>-8.8912680745124817e-002</right_val></_></_>
        <_>
          <!-- tree 6 -->
          <_>
            <!-- root node -->
            <feature>
              <rects>
                <_>
                  12 5 8 6 -1.</_>
                <_>
                  14 7 4 6 2.</_></rects>
              <tilted>1</tilted></feature>
            <threshold>-1.8488230416551232e-003</threshold>
            <left_val>1.6028000414371490e-001</left_val>
            <right_val>-5.3064000606536865e-001</right_val></_></_>
        <_>
          <!-- tree 7 -->
          <_>
            <!-- root node -->
            <feature>
              <rects>
                <_>
                  6 0 12 4 -1.</_>
                <_>
                  6 2 12 2 2.</_></rects>
              <tilted>0</tilted></feature>
            <threshold>-3.0029239133000374e-002</threshold>
            <left_val>3.6800539493560791e-001</left_val>
            <right_val>-1.9053280353546143e-001</right_val></_></_>
        <_>
          <!-- tree 8 -->
          <_>
            <!-- root node -->
            <feature>
              <rects>
                <_>
                  9 1 6 4 -1.</_>
                <_>
                  9 2 6 2 2.</_></rects>
              <tilted>0</tilted></feature>
            <threshold>8.1632006913423538e-003</threshold>
            <left_val>-1.7719429731369019e-001</left_val>
            <right_val>5.2859342098236084e-001</right_val></_></_>
        <_>
          <!-- tree 9 -->
          <_>
            <!-- root node -->
            <feature>
              <rects>
                <_>
                  14 16 6 1 -1.</_>
                <_>
                  16 18 2 1 3.</_></rects>
              <tilted>1</tilted></feature>
            <threshold>-6.7053800448775291e-003</threshold>
            <left_val>1.3707600533962250e-001</left_val>
            <right_val>-8.1204086542129517e-002</right_val></_></_>
        <_>
          <!-- tree 10 -->
          <_>
            <!-- root node -->
            <feature>
              <rects>
                <_>
                  8 12 4 6 -1.</_>
                <_>
                  8 14 4 2 3.</_></rects>
              <tilted>0</tilted></feature>
            <threshold>-4.5749847777187824e-003</threshold>
            <left_val>2.2295039892196655e-001</left_val>
            <right_val>-2.5697639584541321e-001</right_val></_></_>
        <_>
          <!-- tree 11 -->
          <_>
            <!-- root node -->
            <feature>
              <rects>
                <_>
                  8 13 8 3 -1.</_>
                <_>
                  8 14 8 1 3.</_></rects>
              <tilted>0</tilted></feature>
            <threshold>8.8036758825182915e-003</threshold>
            <left_val>-1.1588379740715027e-001</left_val>
            <right_val>5.4632818698883057e-001</right_val></_></_>
        <_>
          <!-- tree 12 -->
          <_>
            <!-- root node -->
            <feature>
              <rects>
                <_>
                  4 8 16 3 -1.</_>
                <_>
                  12 8 8 3 2.</_></rects>
              <tilted>0</tilted></feature>
            <threshold>-8.8332360610365868e-003</threshold>
            <left_val>-3.5319060087203979e-001</left_val>
            <right_val>1.7895950376987457e-001</right_val></_></_>
        <_>
          <!-- tree 13 -->
          <_>
            <!-- root node -->
            <feature>
              <rects>
                <_>
                  19 14 3 4 -1.</_>
                <_>
                  20 15 1 4 3.</_></rects>
              <tilted>1</tilted></feature>
            <threshold>1.4989390037953854e-002</threshold>
            <left_val>-1.0137859731912613e-001</left_val>
            <right_val>6.9022631645202637e-001</right_val></_></_>
        <_>
          <!-- tree 14 -->
          <_>
            <!-- root node -->
            <feature>
              <rects>
                <_>
                  6 5 3 3 -1.</_>
                <_>
                  7 6 1 1 9.</_></rects>
              <tilted>0</tilted></feature>
            <threshold>-1.5997180016711354e-003</threshold>
            <left_val>2.4288420379161835e-001</left_val>
            <right_val>-2.8562599420547485e-001</right_val></_></_>
        <_>
          <!-- tree 15 -->
          <_>
            <!-- root node -->
            <feature>
              <rects>
                <_>
                  14 16 6 2 -1.</_>
                <_>
                  16 18 2 2 3.</_></rects>
              <tilted>1</tilted></feature>
            <threshold>-1.3710210332646966e-003</threshold>
            <left_val>8.0876588821411133e-002</left_val>
            <right_val>-1.8123920261859894e-001</right_val></_></_>
        <_>
          <!-- tree 16 -->
          <_>
            <!-- root node -->
            <feature>
              <rects>
                <_>
                  11 22 2 1 -1.</_>
                <_>
                  12 22 1 1 2.</_></rects>
              <tilted>0</tilted></feature>
            <threshold>-1.0181850520893931e-003</threshold>
            <left_val>-7.2766411304473877e-001</left_val>
            <right_val>7.6199822127819061e-002</right_val></_></_>
        <_>
          <!-- tree 17 -->
          <_>
            <!-- root node -->
            <feature>
              <rects>
                <_>
                  13 9 6 6 -1.</_>
                <_>
                  15 9 2 6 3.</_></rects>
              <tilted>0</tilted></feature>
            <threshold>1.0006310418248177e-002</threshold>
            <left_val>-9.9134989082813263e-002</left_val>
            <right_val>1.2039790302515030e-001</right_val></_></_>
        <_>
          <!-- tree 18 -->
          <_>
            <!-- root node -->
            <feature>
              <rects>
                <_>
                  5 9 6 6 -1.</_>
                <_>
                  7 9 2 6 3.</_></rects>
              <tilted>0</tilted></feature>
            <threshold>-5.1267212256789207e-003</threshold>
            <left_val>2.2207160294055939e-001</left_val>
            <right_val>-2.7326080203056335e-001</right_val></_></_>
        <_>
          <!-- tree 19 -->
          <_>
            <!-- root node -->
            <feature>
              <rects>
                <_>
                  15 15 6 1 -1.</_>
                <_>
                  17 17 2 1 3.</_></rects>
              <tilted>1</tilted></feature>
            <threshold>-2.2029778920114040e-003</threshold>
            <left_val>1.0775499790906906e-001</left_val>
            <right_val>-1.4865340292453766e-001</right_val></_></_>
        <_>
          <!-- tree 20 -->
          <_>
            <!-- root node -->
            <feature>
              <rects>
                <_>
                  0 1 8 4 -1.</_>
                <_>
                  0 1 4 2 2.</_>
                <_>
                  4 3 4 2 2.</_></rects>
