<?xml version="1.0"?>
<opencv_storage>
<positive_data type_id="opencv-haar-classifier">
  <size>
    24 24</size>
  <stages>
    <_>
      <!-- stage 0 -->
      <trees>
        <_>
          <!-- tree 0 -->
          <_>
            <!-- root node -->
            <feature>
              <rects>
                <_>
                  5 6 6 12 -1.</_>
                <_>
                  7 10 2 4 9.</_></rects>
              <tilted>0</tilted></feature>
            <threshold>-5.3396530449390411e-002</threshold>
            <left_val>7.5300937891006470e-001</left_val>
            <right_val>-8.3673232793807983e-001</right_val></_></_>
        <_>
          <!-- tree 1 -->
          <_>
            <!-- root node -->
            <feature>
              <rects>
                <_>
                  17 0 6 4 -1.</_>
                <_>
                  16 1 6 2 2.</_></rects>
              <tilted>1</tilted></feature>
            <threshold>-1.0914989747107029e-002</threshold>
            <left_val>7.6758277416229248e-001</left_val>
            <right_val>-6.2523478269577026e-001</right_val></_></_>
        <_>
          <!-- tree 2 -->
          <_>
            <!-- root node -->
            <feature>
              <rects>
                <_>
                  6 1 4 5 -1.</_>
                <_>
                  7 2 2 5 2.</_></rects>
              <tilted>1</tilted></feature>
            <threshold>-5.2093169651925564e-003</threshold>
            <left_val>6.7221772670745850e-001</left_val>
            <right_val>-7.1415448188781738e-001</right_val></_></_></trees>
      <stage_threshold>-7.8974932432174683e-001</stage_threshold>
      <parent>-1</parent>
      <next>-1</next></_>
    <_>
      <!-- stage 1 -->
      <trees>
        <_>
          <!-- tree 0 -->
          <_>
            <!-- root node -->
            <feature>
              <rects>
                <_>
                  6 15 5 4 -1.</_>
                <_>
                  5 16 5 2 2.</_></rects>
              <tilted>1</tilted></feature>
            <threshold>-1.1760059744119644e-002</threshold>
            <left_val>7.7202868461608887e-001</left_val>
            <right_val>-6.0333812236785889e-001</right_val></_></_>
        <_>
          <!-- tree 1 -->
          <_>
            <!-- root node -->
            <feature>
              <rects>
                <_>
                  9 5 6 15 -1.</_>
                <_>
                  11 10 2 5 9.</_></rects>
              <tilted>0</tilted></feature>
            <threshold>-5.1612768322229385e-002</threshold>
            <left_val>5.5531120300292969e-001</left_val>
            <right_val>-6.8038547039031982e-001</right_val></_></_>
        <_>
          <!-- tree 2 -->
          <_>
            <!-- root node -->
            <feature>
              <rects>
                <_>
                  7 0 4 6 -1.</_>
                <_>
                  8 1 2 6 2.</_></rects>
              <tilted>1</tilted></feature>
            <threshold>-1.5109989792108536e-002</threshold>
            <left_val>6.2558132410049438e-001</left_val>
            <right_val>-5.0475597381591797e-001</right_val></_></_>
        <_>
          <!-- tree 3 -->
          <_>
            <!-- root node -->
            <feature>
              <rects>
                <_>
                  6 16 12 6 -1.</_>
                <_>
                  6 19 12 3 2.</_></rects>
              <tilted>0</tilted></feature>
            <threshold>-1.3154050335288048e-002</threshold>
            <left_val>4.6111199259757996e-001</left_val>
            <right_val>-5.1032537221908569e-001</right_val></_></_>
        <_>
          <!-- tree 4 -->
          <_>
            <!-- root node -->
            <feature>
              <rects>
                <_>
                  6 9 3 4 -1.</_>
                <_>
                  7 9 1 4 3.</_></rects>
              <tilted>0</tilted></feature>
            <threshold>-2.9173179063946009e-003</threshold>
            <left_val>5.7064402103424072e-001</left_val>
            <right_val>-3.9271968603134155e-001</right_val></_></_>
        <_>
          <!-- tree 5 -->
          <_>
            <!-- root node -->
            <feature>
              <rects>
                <_>
                  16 4 4 10 -1.</_>
                <_>
                  16 4 2 10 2.</_></rects>
              <tilted>1</tilted></feature>
            <threshold>2.3233920335769653e-002</threshold>
            <left_val>3.3383380621671677e-002</left_val>
            <right_val>-3.8753259181976318e-001</right_val></_></_>
        <_>
          <!-- tree 6 -->
          <_>
            <!-- root node -->
            <feature>
              <rects>
                <_>
                  8 4 10 4 -1.</_>
                <_>
                  8 4 10 2 2.</_></rects>
              <tilted>1</tilted></feature>
            <threshold>2.9313359409570694e-003</threshold>
            <left_val>-5.1135307550430298e-001</left_val>
            <right_val>2.9552280902862549e-001</right_val></_></_></trees>
      <stage_threshold>-1.7941279411315918e+000</stage_threshold>
      <parent>0</parent>
      <next>-1</next></_>
    <_>
      <!-- stage 2 -->
      <trees>
        <_>
          <!-- tree 0 -->
          <_>
            <!-- root node -->
            <feature>
              <rects>
                <_>
                  1 4 6 16 -1.</_>
                <_>
                  3 4 2 16 3.</_></rects>
              <tilted>0</tilted></feature>
            <threshold>-2.8142619878053665e-002</threshold>
            <left_val>6.0524260997772217e-001</left_val>
            <right_val>-5.7132971286773682e-001</right_val></_></_>
        <_>
          <!-- tree 1 -->
          <_>
            <!-- root node -->
            <feature>
              <rects>
                <_>
                  11 6 9 12 -1.</_>
                <_>
                  11 10 9 4 3.</_></rects>
              <tilted>0</tilted></feature>
            <threshold>-1.1551289819180965e-002</threshold>
            <left_val>2.1020600199699402e-001</left_val>
            <right_val>-2.4263170361518860e-001</right_val></_></_>
        <_>
          <!-- tree 2 -->
          <_>
            <!-- root node -->
            <feature>
              <rects>
                <_>
                  6 18 11 6 -1.</_>
                <_>
                  6 20 11 2 3.</_></rects>
              <tilted>0</tilted></feature>
            <threshold>-3.0411349609494209e-002</threshold>
            <left_val>6.7970848083496094e-001</left_val>
            <right_val>-4.0420231223106384e-001</right_val></_></_>
        <_>
          <!-- tree 3 -->
          <_>
            <!-- root node -->
            <feature>
              <rects>
                <_>
                  9 9 6 5 -1.</_>
                <_>
                  11 9 2 5 3.</_></rects>
              <tilted>0</tilted></feature>
            <threshold>-1.3687689788639545e-002</threshold>
            <left_val>6.1227977275848389e-001</left_val>
            <right_val>-3.7428799271583557e-001</right_val></_></_>
        <_>
          <!-- tree 4 -->
          <_>
            <!-- root node -->
            <feature>
              <rects>
                <_>
                  7 0 10 6 -1.</_>
                <_>
                  7 2 10 2 3.</_></rects>
              <tilted>0</tilted></feature>
            <threshold>-3.9404239505529404e-002</threshold>
            <left_val>7.2814571857452393e-001</left_val>
            <right_val>-3.1633931398391724e-001</right_val></_></_>
        <_>
          <!-- tree 5 -->
          <_>
            <!-- root node -->
            <feature>
              <rects>
                <_>
                  13 12 6 1 -1.</_>
                <_>
                  15 12 2 1 3.</_></rects>
              <tilted>0</tilted></feature>
            <threshold>1.8195359734818339e-003</threshold>
            <left_val>-6.5062411129474640e-002</left_val>
            <right_val>2.1353819966316223e-001</right_val></_></_>
        <_>
          <!-- tree 6 -->
          <_>
            <!-- root node -->
            <feature>
              <rects>
                <_>
                  5 9 6 6 -1.</_>
                <_>
                  7 11 2 2 9.</_></rects>
              <tilted>0</tilted></feature>
            <threshold>-1.0951769538223743e-002</threshold>
            <left_val>3.3133488893508911e-001</left_val>
            <right_val>-5.4387629032135010e-001</right_val></_></_>
        <_>
          <!-- tree 7 -->
          <_>
            <!-- root node -->
            <feature>
              <rects>
                <_>
                  20 1 1 6 -1.</_>
                <_>
                  18 3 1 2 3.</_></rects>
              <tilted>1</tilted></feature>
            <threshold>-2.3481620009988546e-003</threshold>
            <left_val>2.6082769036293030e-001</left_val>
            <right_val>-4.0081080794334412e-001</right_val></_></_>
        <_>
          <!-- tree 8 -->
          <_>
            <!-- root node -->
            <feature>
              <rects>
                <_>
                  7 2 10 2 -1.</_>
                <_>
                  7 3 10 1 2.</_></rects>
              <tilted>0</tilted></feature>
            <threshold>1.0608240030705929e-002</threshold>
            <left_val>-1.9596929848194122e-001</left_val>
            <right_val>7.3669838905334473e-001</right_val></_></_>
        <_>
          <!-- tree 9 -->
          <_>
            <!-- root node -->
            <feature>
              <rects>
                <_>
                  9 1 8 3 -1.</_>
                <_>
                  9 2 8 1 3.</_></rects>
              <tilted>0</tilted></feature>
            <threshold>6.1458218842744827e-003</threshold>
            <left_val>-1.8420499563217163e-001</left_val>
            <right_val>5.6414312124252319e-001</right_val></_></_>
        <_>
          <!-- tree 10 -->
          <_>
            <!-- root node -->
            <feature>
              <rects>
                <_>
                  0 16 14 8 -1.</_>
                <_>
                  0 16 7 4 2.</_>
                <_>
                  7 20 7 4 2.</_></rects>
              <tilted>0</tilted></feature>
            <threshold>-1.4389339834451675e-002</threshold>
            <left_val>3.6616080999374390e-001</left_val>
            <right_val>-4.2652910947799683e-001</right_val></_></_>
        <_>
          <!-- tree 11 -->
          <_>
            <!-- root node -->
            <feature>
              <rects>
                <_>
                  20 1 1 6 -1.</_>
                <_>
                  18 3 1 2 3.</_></rects>
              <tilted>1</tilted></feature>
            <threshold>-5.8741308748722076e-004</threshold>
            <left_val>4.9325581640005112e-002</left_val>
            <right_val>-1.2537859380245209e-001</right_val></_></_>
        <_>
          <!-- tree 12 -->
          <_>
            <!-- root node -->
            <feature>
              <rects>
                <_>
                  4 1 6 1 -1.</_>
                <_>
                  6 3 2 1 3.</_></rects>
              <tilted>1</tilted></feature>
            <threshold>-3.0541489832103252e-003</threshold>
            <left_val>2.9939329624176025e-001</left_val>
            <right_val>-5.0122731924057007e-001</right_val></_></_></trees>
      <stage_threshold>-1.9221969842910767e+000</stage_threshold>
      <parent>1</parent>
      <next>-1</next></_>
    <_>
      <!-- stage 3 -->
      <trees>
        <_>
          <!-- tree 0 -->
          <_>
            <!-- root node -->
            <feature>
              <rects>
                <_>
                  3 10 3 3 -1.</_>
                <_>
                  4 10 1 3 3.</_></rects>
              <tilted>0</tilted></feature>
            <threshold>-4.4438908807933331e-003</threshold>
            <left_val>6.8837821483612061e-001</left_val>
            <right_val>-4.6116980910301208e-001</right_val></_></_>
        <_>
          <!-- tree 1 -->
          <_>
            <!-- root node -->
            <feature>
              <rects>
                <_>
                  11 6 6 12 -1.</_>
                <_>
                  11 10 6 4 3.</_></rects>
              <tilted>0</tilted></feature>
            <threshold>-2.1495010703802109e-002</threshold>
            <left_val>3.3463558554649353e-001</left_val>
            <right_val>-3.5569190979003906e-001</right_val></_></_>
        <_>
          <!-- tree 2 -->
          <_>
            <!-- root node -->
            <feature>
              <rects>
                <_>
                  6 9 4 4 -1.</_>
                <_>
                  7 9 2 4 2.</_></rects>
              <tilted>0</tilted></feature>
            <threshold>-4.1396711021661758e-003</threshold>
            <left_val>4.6440029144287109e-001</left_val>
            <right_val>-5.2722322940826416e-001</right_val></_></_>
        <_>
          <!-- tree 3 -->
          <_>
            <!-- root node -->
            <feature>
              <rects>
                <_>
                  19 14 4 6 -1.</_>
                <_>
                  20 15 2 6 2.</_></rects>
              <tilted>1</tilted></feature>
            <threshold>-8.5292905569076538e-003</threshold>
            <left_val>5.7051599025726318e-001</left_val>
            <right_val>-6.1819559335708618e-001</right_val></_></_>
        <_>
          <!-- tree 4 -->
          <_>
            <!-- root node -->
            <feature>
              <rects>
                <_>
                  6 3 12 2 -1.</_>
                <_>
                  6 4 12 1 2.</_></rects>
              <tilted>0</tilted></feature>
            <threshold>4.4179018586874008e-003</threshold>
            <left_val>-4.1053280234336853e-001</left_val>
            <right_val>3.7602949142456055e-001</right_val></_></_>
        <_>
          <!-- tree 5 -->
          <_>
            <!-- root node -->
            <feature>
              <rects>
                <_>
                  20 13 4 6 -1.</_>
                <_>
                  21 14 2 6 2.</_></rects>
              <tilted>1</tilted></feature>
            <threshold>-2.7947079390287399e-002</threshold>
            <left_val>6.9133061170578003e-001</left_val>
            <right_val>-1.2647260725498199e-001</right_val></_></_>
        <_>
          <!-- tree 6 -->
          <_>
            <!-- root node -->
            <feature>
              <rects>
                <_>
                  4 13 6 4 -1.</_>
                <_>
                  3 14 6 2 2.</_></rects>
              <tilted>1</tilted></feature>
            <threshold>-1.0425180196762085e-002</threshold>
            <left_val>4.6611139178276062e-001</left_val>
            <right_val>-3.6288401484489441e-001</right_val></_></_>
        <_>
          <!-- tree 7 -->
          <_>
            <!-- root node -->
            <feature>
              <rects>
                <_>
                  16 7 4 4 -1.</_>
                <_>
                  16 7 2 4 2.</_></rects>
              <tilted>1</tilted></feature>
            <threshold>2.5973439216613770e-002</threshold>
            <left_val>4.8902131617069244e-002</left_val>
            <right_val>-5.0341039896011353e-001</right_val></_></_>
        <_>
          <!-- tree 8 -->
          <_>
            <!-- root node -->
            <feature>
              <rects>
                <_>
                  8 7 4 4 -1.</_>
                <_>
                  8 7 4 2 2.</_></rects>
              <tilted>1</tilted></feature>
            <threshold>-6.5977009944617748e-003</threshold>
            <left_val>-7.3258417844772339e-001</left_val>
            <right_val>1.7003239691257477e-001</right_val></_></_>
        <_>
          <!-- tree 9 -->
          <_>
            <!-- root node -->
            <feature>
              <rects>
                <_>
                  17 0 7 3 -1.</_>
                <_>
                  16 1 7 1 3.</_></rects>
              <tilted>1</tilted></feature>
            <threshold>-2.4572990834712982e-002</threshold>
            <left_val>7.5917208194732666e-001</left_val>
            <right_val>-3.2930061221122742e-001</right_val></_></_></trees>
      <stage_threshold>-1.8840630054473877e+000</stage_threshold>
      <parent>2</parent>
      <next>-1</next></_>
    <_>
      <!-- stage 4 -->
      <trees>
        <_>
          <!-- tree 0 -->
          <_>
            <!-- root node -->
            <feature>
              <rects>
                <_>
                  1 6 12 6 -1.</_>
                <_>
                  1 6 6 3 2.</_>
                <_>
                  7 9 6 3 2.</_></rects>
              <tilted>0</tilted></feature>
            <threshold>-1.6485629603266716e-002</threshold>
            <left_val>4.9688899517059326e-001</left_val>
            <right_val>-5.8649528026580811e-001</right_val></_></_>
        <_>
          <!-- tree 1 -->
          <_>
            <!-- root node -->
            <feature>
              <rects>
                <_>
                  19 14 4 6 -1.</_>
                <_>
                  20 15 2 6 2.</_></rects>
              <tilted>1</tilted></feature>
            <threshold>-1.6440259292721748e-002</threshold>
            <left_val>5.9003752470016479e-001</left_val>
            <right_val>-4.8486369848251343e-001</right_val></_></_>
        <_>
          <!-- tree 2 -->
          <_>
            <!-- root node -->
            <feature>
              <rects>
                <_>
                  6 1 3 5 -1.</_>
                <_>
                  7 2 1 5 3.</_></rects>
              <tilted>1</tilted></feature>
            <threshold>-2.6923270896077156e-002</threshold>
            <left_val>8.4838712215423584e-001</left_val>
            <right_val>-2.4603219330310822e-001</right_val></_></_>
        <_>
          <!-- tree 3 -->
          <_>
            <!-- root node -->
            <feature>
              <rects>
                <_>
                  7 0 10 6 -1.</_>
                <_>
                  7 2 10 2 3.</_></rects>
              <tilted>0</tilted></feature>
            <threshold>-2.8950350359082222e-002</threshold>
            <left_val>5.1491659879684448e-001</left_val>
            <right_val>-3.8176590204238892e-001</right_val></_></_>
        <_>
          <!-- tree 4 -->
          <_>
            <!-- root node -->
            <feature>
              <rects>
                <_>
                  6 15 4 4 -1.</_>
                <_>
                  5 16 4 2 2.</_></rects>
              <tilted>1</tilted></feature>
            <threshold>-6.7056841216981411e-003</threshold>
            <left_val>3.9666229486465454e-001</left_val>
            <right_val>-4.4723600149154663e-001</right_val></_></_>
        <_>
          <!-- tree 5 -->
          <_>
            <!-- root node -->
            <feature>
              <rects>
                <_>
                  11 9 3 9 -1.</_>
                <_>
                  11 12 3 3 3.</_></rects>
              <tilted>0</tilted></feature>
            <threshold>-1.3204469578340650e-003</threshold>
            <left_val>2.5380021333694458e-001</left_val>
            <right_val>-5.2806037664413452e-001</right_val></_></_>
        <_>
          <!-- tree 6 -->
          <_>
            <!-- root node -->
            <feature>
              <rects>
                <_>
                  9 9 6 2 -1.</_>
                <_>
                  11 9 2 2 3.</_></rects>
              <tilted>0</tilted></feature>
            <threshold>-1.5984099591150880e-003</threshold>
            <left_val>3.1369790434837341e-001</left_val>
            <right_val>-4.6137240529060364e-001</right_val></_></_>
        <_>
          <!-- tree 7 -->
          <_>
            <!-- root node -->
            <feature>
              <rects>
                <_>
                  8 12 12 1 -1.</_>
                <_>
                  8 12 6 1 2.</_></rects>
              <tilted>0</tilted></feature>
            <threshold>-5.8756391517817974e-003</threshold>
            <left_val>2.2142559289932251e-001</left_val>
            <right_val>-2.2122870385646820e-001</right_val></_></_>
        <_>
          <!-- tree 8 -->
          <_>
            <!-- root node -->
            <feature>
              <rects>
                <_>
                  2 6 20 14 -1.</_>
                <_>
                  7 6 10 14 2.</_></rects>
              <tilted>0</tilted></feature>
            <threshold>7.2366796433925629e-002</threshold>
            <left_val>-3.0437710881233215e-001</left_val>
            <right_val>4.7205290198326111e-001</right_val></_></_>
        <_>
          <!-- tree 9 -->
          <_>
            <!-- root node -->
            <feature>
              <rects>
                <_>
                  9 12 15 3 -1.</_>
                <_>
                  14 13 5 1 9.</_></rects>
              <tilted>0</tilted></feature>
            <threshold>5.2831098437309265e-002</threshold>
            <left_val>-4.6312201768159866e-002</left_val>
            <right_val>2.7851909399032593e-001</right_val></_></_>
        <_>
          <!-- tree 10 -->
          <_>
            <!-- root node -->
            <feature>
              <rects>
                <_>
                  0 0 24 3 -1.</_>
                <_>
                  8 1 8 1 9.</_></rects>
              <tilted>0</tilted></feature>
            <threshold>-1.7541609704494476e-001</threshold>
            <left_val>9.1918259859085083e-001</left_val>
            <right_val>-1.1835200339555740e-001</right_val></_></_></trees>
      <stage_threshold>-1.7116889953613281e+000</stage_threshold>
      <parent>3</parent>
      <next>-1</next></_>
    <_>
      <!-- stage 5 -->
      <trees>
        <_>
          <!-- tree 0 -->
          <_>
            <!-- root node -->
            <feature>
              <rects>
                <_>
                  5 6 6 12 -1.</_>
                <_>
                  7 10 2 4 9.</_></rects>
              <tilted>0</tilted></feature>
            <threshold>-9.8373398184776306e-002</threshold>
            <left_val>5.5474138259887695e-001</left_val>
            <right_val>-5.2281439304351807e-001</right_val></_></_>
        <_>
          <!-- tree 1 -->
          <_>
            <!-- root node -->
            <feature>
              <rects>
                <_>
                  17 0 6 4 -1.</_>
                <_>
                  16 1 6 2 2.</_></rects>
              <tilted>1</tilted></feature>
            <threshold>-1.6560589894652367e-002</threshold>
            <left_val>5.5670672655105591e-001</left_val>
            <right_val>-4.4821861386299133e-001</right_val></_></_>
        <_>
          <!-- tree 2 -->
          <_>
            <!-- root node -->
            <feature>
              <rects>
                <_>
                  6 1 4 6 -1.</_>
                <_>
                  7 2 2 6 2.</_></rects>
              <tilted>1</tilted></feature>
            <threshold>-1.3838670216500759e-002</threshold>
            <left_val>4.7509479522705078e-001</left_val>
            <right_val>-4.5486330986022949e-001</right_val></_></_>
        <_>
          <!-- tree 3 -->
          <_>
            <!-- root node -->
            <feature>
              <rects>
                <_>
                  7 18 11 6 -1.</_>
                <_>
                  7 20 11 2 3.</_></rects>
              <tilted>0</tilted></feature>
            <threshold>-3.0321169644594193e-002</threshold>
            <left_val>4.7570788860321045e-001</left_val>
            <right_val>-3.4950560331344604e-001</right_val></_></_>
        <_>
          <!-- tree 4 -->
          <_>
            <!-- root node -->
            <feature>
              <rects>
                <_>
                  4 15 6 3 -1.</_>
                <_>
                  3 16 6 1 3.</_></rects>
              <tilted>1</tilted></feature>
            <threshold>-2.5866869837045670e-002</threshold>
            <left_val>7.4340009689331055e-001</left_val>
            <right_val>-2.2429719567298889e-001</right_val></_></_>
        <_>
          <!-- tree 5 -->
          <_>
            <!-- root node -->
            <feature>
              <rects>
                <_>
                  8 10 16 4 -1.</_>
                <_>
                  12 10 8 4 2.</_></rects>
              <tilted>0</tilted></feature>
            <threshold>4.0291741490364075e-002</threshold>
            <left_val>-1.8038339912891388e-001</left_val>
            <right_val>5.3278517723083496e-001</right_val></_></_>
        <_>
          <!-- tree 6 -->
          <_>
            <!-- root node -->
            <feature>
              <rects>
                <_>
                  3 10 4 2 -1.</_>
                <_>
                  4 10 2 2 2.</_></rects>
              <tilted>0</tilted></feature>
            <threshold>-1.6392869874835014e-003</threshold>
            <left_val>3.9845180511474609e-001</left_val>
            <right_val>-2.9022240638732910e-001</right_val></_></_>
        <_>
          <!-- tree 7 -->
          <_>
            <!-- root node -->
            <feature>
              <rects>
                <_>
                  23 12 1 9 -1.</_>
                <_>
                  23 15 1 3 3.</_></rects>
              <tilted>0</tilted></feature>
            <threshold>-2.6273299008607864e-003</threshold>
            <left_val>-4.2992991209030151e-001</left_val>
            <right_val>1.1463119834661484e-001</right_val></_></_>
        <_>
          <!-- tree 8 -->
          <_>
            <!-- root node -->
            <feature>
              <rects>
                <_>
                  7 20 9 3 -1.</_>
                <_>
                  7 21 9 1 3.</_></rects>
              <tilted>0</tilted></feature>
            <threshold>7.0681869983673096e-003</threshold>
            <left_val>-1.8135440349578857e-001</left_val>
            <right_val>5.5059379339218140e-001</right_val></_></_>
        <_>
          <!-- tree 9 -->
          <_>
            <!-- root node -->
            <feature>
              <rects>
                <_>
                  23 12 1 9 -1.</_>
                <_>
                  23 15 1 3 3.</_></rects>
              <tilted>0</tilted></feature>
            <threshold>2.0269961096346378e-003</threshold>
            <left_val>1.0679460316896439e-001</left_val>
            <right_val>-1.6239529848098755e-001</right_val></_></_>
        <_>
          <!-- tree 10 -->
          <_>
            <!-- root node -->
            <feature>
              <rects>
                <_>
                  3 6 12 1 -1.</_>
                <_>
                  7 10 4 1 3.</_></rects>
              <tilted>1</tilted></feature>
            <threshold>-3.2436160836368799e-003</threshold>
            <left_val>1.9704200327396393e-001</left_val>
            <right_val>-5.0509077310562134e-001</right_val></_></_>
        <_>
          <!-- tree 11 -->
          <_>
            <!-- root node -->
            <feature>
              <rects>
                <_>
                  10 9 12 6 -1.</_>
                <_>
                  14 11 4 2 9.</_></rects>
              <tilted>0</tilted></feature>
            <threshold>-5.4829850792884827e-002</threshold>
            <left_val>-4.6543210744857788e-001</left_val>
            <right_val>5.0111260265111923e-002</right_val></_></_>
        <_>
          <!-- tree 12 -->
          <_>
            <!-- root node -->
            <feature>
              <rects>
                <_>
                  2 9 12 6 -1.</_>
                <_>
                  6 11 4 2 9.</_></rects>
              <tilted>0</tilted></feature>
            <threshold>-8.7063066661357880e-002</threshold>
            <left_val>-7.6894247531890869e-001</left_val>
            <right_val>1.5646609663963318e-001</right_val></_></_>
        <_>
          <!-- tree 13 -->
          <_>
            <!-- root node -->
            <feature>
              <rects>
                <_>
                  23 12 1 9 -1.</_>
                <_>
                  23 15 1 3 3.</_></rects>
              <tilted>0</tilted></feature>
            <threshold>-2.4670690298080444e-002</threshold>
            <left_val>8.4000998735427856e-001</left_val>
            <right_val>-3.5415809601545334e-002</right_val></_></_>
        <_>
          <!-- tree 14 -->
          <_>
            <!-- root node -->
            <feature>
              <rects>
                <_>
                  0 12 1 9 -1.</_>
                <_>
                  0 15 1 3 3.</_></rects>
              <tilted>0</tilted></feature>
            <threshold>3.2560760155320168e-003</threshold>
            <left_val>1.6581970453262329e-001</left_val>
            <right_val>-6.3517838716506958e-001</right_val></_></_>
        <_>
          <!-- tree 15 -->
          <_>
            <!-- root node -->
            <feature>
              <rects>
                <_>
                  16 8 1 6 -1.</_>
                <_>
                  16 10 1 2 3.</_></rects>
              <tilted>0</tilted></feature>
            <threshold>-1.0713290423154831e-002</threshold>
            <left_val>-8.3240962028503418e-001</left_val>
            <right_val>4.8075881786644459e-003</right_val></_></_></trees>
      <stage_threshold>-1.5817329883575439e+000</stage_threshold>
      <parent>4</parent>
      <next>-1</next></_>
    <_>
      <!-- stage 6 -->
      <trees>
        <_>
          <!-- tree 0 -->
          <_>
            <!-- root node -->
            <feature>
              <rects>
                <_>
                  6 10 2 1 -1.</_>
                <_>
                  7 10 1 1 2.</_></rects>
              <tilted>0</tilted></feature>
            <threshold>-7.6459761476144195e-004</threshold>
            <left_val>4.5659920573234558e-001</left_val>
            <right_val>-5.6015282869338989e-001</right_val></_></_>
        <_>
          <!-- tree 1 -->
          <_>
            <!-- root node -->
            <feature>
              <rects>
                <_>
                  18 1 5 3 -1.</_>
                <_>
                  17 2 5 1 3.</_></rects>
              <tilted>1</tilted></feature>
            <threshold>-2.0913319662213326e-002</threshold>
            <left_val>7.6583707332611084e-001</left_val>
            <right_val>-4.6859219670295715e-001</right_val></_></_>
        <_>
          <!-- tree 2 -->
          <_>
            <!-- root node -->
            <feature>
              <rects>
                <_>
                  4 15 5 3 -1.</_>
                <_>
                  3 16 5 1 3.</_></rects>
              <tilted>1</tilted></feature>
            <threshold>-2.6643270626664162e-002</threshold>
            <left_val>8.1876862049102783e-001</left_val>
            <right_val>-2.3251460492610931e-001</right_val></_></_>
        <_>
          <!-- tree 3 -->
          <_>
            <!-- root node -->
            <feature>
              <rects>
                <_>
                  11 6 9 12 -1.</_>
                <_>
                  11 10 9 4 3.</_></rects>
              <tilted>0</tilted></feature>
            <threshold>-5.0414670258760452e-003</threshold>
            <left_val>1.3822080194950104e-001</left_val>
            <right_val>-1.6157150268554688e-001</right_val></_></_>
        <_>
          <!-- tree 4 -->
          <_>
            <!-- root node -->
            <feature>
              <rects>
                <_>
                  6 1 3 5 -1.</_>
                <_>
                  7 2 1 5 3.</_></rects>
              <tilted>1</tilted></feature>
            <threshold>-3.2337490469217300e-002</threshold>
            <left_val>8.3672821521759033e-001</left_val>
            <right_val>-1.6959020495414734e-001</right_val></_></_>
        <_>
          <!-- tree 5 -->
          <_>
            <!-- root node -->
            <feature>
              <rects>
                <_>
                  12 12 2 8 -1.</_>
                <_>
                  10 14 2 4 2.</_></rects>
              <tilted>1</tilted></feature>
            <threshold>3.7342249415814877e-003</threshold>
            <left_val>-2.8714540600776672e-001</left_val>
            <right_val>1.5891970694065094e-001</right_val></_></_>
        <_>
          <!-- tree 6 -->
          <_>
            <!-- root node -->
            <feature>
              <rects>
                <_>
                  8 1 3 6 -1.</_>
                <_>
                  9 2 1 6 3.</_></rects>
              <tilted>1</tilted></feature>
            <threshold>-3.0215740203857422e-002</threshold>
            <left_val>8.0303549766540527e-001</left_val>
            <right_val>-1.8583269417285919e-001</right_val></_></_>
        <_>
          <!-- tree 7 -->
          <_>
            <!-- root node -->
            <feature>
              <rects>
                <_>
                  9 16 12 8 -1.</_>
                <_>
                  15 16 6 4 2.</_>
                <_>
                  9 20 6 4 2.</_></rects>
              <tilted>0</tilted></feature>
            <threshold>-7.8136119991540909e-003</threshold>
            <left_val>2.8037109971046448e-001</left_val>
            <right_val>-3.6992689967155457e-001</right_val></_></_>
        <_>
          <!-- tree 8 -->
          <_>
            <!-- root node -->
            <feature>
              <rects>
                <_>
                  4 12 10 1 -1.</_>
                <_>
                  9 12 5 1 2.</_></rects>
              <tilted>0</tilted></feature>
            <threshold>-3.8335439749062061e-003</threshold>
            <left_val>-7.0612651109695435e-001</left_val>
            <right_val>1.3726079463958740e-001</right_val></_></_>
        <_>
          <!-- tree 9 -->
          <_>
            <!-- root node -->
            <feature>
              <rects>
                <_>
                  17 23 6 1 -1.</_>
                <_>
                  17 23 3 1 2.</_></rects>
              <tilted>0</tilted></feature>
            <threshold>-1.0115730110555887e-003</threshold>
            <left_val>-3.7693271040916443e-001</left_val>
            <right_val>1.0692270100116730e-001</right_val></_></_>
        <_>
          <!-- tree 10 -->
          <_>
            <!-- root node -->
            <feature>
              <rects>
                <_>
                  0 3 1 2 -1.</_>
                <_>
                  0 4 1 1 2.</_></rects>
              <tilted>0</tilted></feature>
            <threshold>-5.0620507681742311e-004</threshold>
            <left_val>-6.5117228031158447e-001</left_val>
            <right_val>1.4658829569816589e-001</right_val></_></_>
        <_>
          <!-- tree 11 -->
          <_>
            <!-- root node -->
            <feature>
              <rects>
                <_>
                  23 3 1 2 -1.</_>
                <_>
                  23 4 1 1 2.</_></rects>
              <tilted>0</tilted></feature>
            <threshold>-2.0714179845526814e-004</threshold>
            <left_val>-5.5068272352218628e-001</left_val>
            <right_val>1.4963409304618835e-001</right_val></_></_>
        <_>
          <!-- tree 12 -->
          <_>
            <!-- root node -->
            <feature>
              <rects>
                <_>
                  0 3 1 2 -1.</_>
                <_>
                  0 4 1 1 2.</_></rects>
              <tilted>0</tilted></feature>
            <threshold>3.8577598752453923e-004</threshold>
            <left_val>1.7636869847774506e-001</left_val>
            <right_val>-6.3394337892532349e-001</right_val></_></_>
        <_>
          <!-- tree 13 -->
          <_>
            <!-- root node -->
            <feature>
              <rects>
                <_>
                  8 2 9 3 -1.</_>
                <_>
                  8 3 9 1 3.</_></rects>
              <tilted>0</tilted></feature>
            <threshold>-1.9948190078139305e-002</threshold>
            <left_val>6.4195191860198975e-001</left_val>
            <right_val>-1.4911669492721558e-001</right_val></_></_>
        <_>
          <!-- tree 14 -->
          <_>
            <!-- root node -->
            <feature>
              <rects>
                <_>
                  8 0 7 4 -1.</_>
                <_>
                  8 1 7 2 2.</_></rects>
              <tilted>0</tilted></feature>
            <threshold>-1.8681980669498444e-002</threshold>
            <left_val>6.8732082843780518e-001</left_val>
            <right_val>-1.7078089714050293e-001</right_val></_></_></trees>
      <stage_threshold>-1.6642030477523804e+000</stage_threshold>
      <parent>5</parent>
      <next>-1</next></_>
    <_>
      <!-- stage 7 -->
      <trees>
        <_>
          <!-- tree 0 -->
          <_>
            <!-- root node -->
            <feature>
              <rects>
                <_>
                  1 4 6 16 -1.</_>
                <_>
                  3 4 2 16 3.</_></rects>
              <tilted>0</tilted></feature>
            <threshold>-3.5514108836650848e-002</threshold>
            <left_val>5.0792038440704346e-001</left_val>
            <right_val>-4.8506590723991394e-001</right_val></_></_>
        <_>
          <!-- tree 1 -->
          <_>
            <!-- root node -->
            <feature>
              <rects>
                <_>
                  11 6 9 12 -1.</_>
                <_>
                  11 10 9 4 3.</_></rects>
              <tilted>0</tilted></feature>
            <threshold>-1.6454430297017097e-002</threshold>
            <left_val>1.1541330069303513e-001</left_val>
            <right_val>-1.5714700520038605e-001</right_val></_></_>
        <_>
          <!-- tree 2 -->
          <_>
            <!-- root node -->
            <feature>
              <rects>
                <_>
                  2 10 16 5 -1.</_>
                <_>
                  6 10 8 5 2.</_></rects>
              <tilted>0</tilted></feature>
            <threshold>-1.8511980772018433e-002</threshold>
            <left_val>3.6229979991912842e-001</left_val>
            <right_val>-5.3851908445358276e-001</right_val></_></_>
        <_>
          <!-- tree 3 -->
          <_>
            <!-- root node -->
            <feature>
              <rects>
                <_>
                  18 1 4 3 -1.</_>
                <_>
                  17 2 4 1 3.</_></rects>
              <tilted>1</tilted></feature>
            <threshold>-1.3888959772884846e-002</threshold>
            <left_val>5.1332551240921021e-001</left_val>
            <right_val>-3.8955599069595337e-001</right_val></_></_>
        <_>
          <!-- tree 4 -->
          <_>
            <!-- root node -->
            <feature>
              <rects>
                <_>
                  4 15 6 3 -1.</_>
                <_>
                  3 16 6 1 3.</_></rects>
              <tilted>1</tilted></feature>
            <threshold>-3.4811850637197495e-002</threshold>
            <left_val>7.5415879487991333e-001</left_val>
            <right_val>-1.9179239869117737e-001</right_val></_></_>
        <_>
          <!-- tree 5 -->
          <_>
            <!-- root node -->
            <feature>
              <rects>
                <_>
                  8 18 9 6 -1.</_>
                <_>
                  8 20 9 2 3.</_></rects>
              <tilted>0</tilted></feature>
            <threshold>-3.9095111191272736e-002</threshold>
            <left_val>5.1280581951141357e-001</left_val>
            <right_val>-2.5858700275421143e-001</right_val></_></_>
        <_>
          <!-- tree 6 -->
          <_>
            <!-- root node -->
            <feature>
              <rects>
                <_>
                  7 3 3 4 -1.</_>
                <_>
                  8 4 1 4 3.</_></rects>
              <tilted>1</tilted></feature>
            <threshold>1.0809649713337421e-002</threshold>
            <left_val>-1.9703710079193115e-001</left_val>
            <right_val>5.4727959632873535e-001</right_val></_></_>
        <_>
          <!-- tree 7 -->
          <_>
            <!-- root node -->
            <feature>
              <rects>
                <_>
                  21 0 1 9 -1.</_>
                <_>
                  18 3 1 3 3.</_></rects>
              <tilted>1</tilted></feature>
            <threshold>-9.5295620849356055e-004</threshold>
            <left_val>1.8341669440269470e-001</left_val>
            <right_val>-3.3708280324935913e-001</right_val></_></_>
        <_>
          <!-- tree 8 -->
          <_>
            <!-- root node -->
            <feature>
              <rects>
                <_>
                  10 9 4 5 -1.</_>
                <_>
                  11 9 2 5 2.</_></rects>
              <tilted>0</tilted></feature>
            <threshold>-9.2686535790562630e-003</threshold>
            <left_val>5.0465381145477295e-001</left_val>
            <right_val>-2.1981069445610046e-001</right_val></_></_>
        <_>
          <!-- tree 9 -->
          <_>
            <!-- root node -->
            <feature>
              <rects>
                <_>
                  19 0 3 6 -1.</_>
                <_>
                  17 2 3 2 3.</_></rects>
              <tilted>1</tilted></feature>
            <threshold>-9.6953846514225006e-003</threshold>
            <left_val>1.1517100036144257e-001</left_val>
            <right_val>-1.7407390475273132e-001</right_val></_></_>
        <_>
          <!-- tree 10 -->
          <_>
            <!-- root node -->
            <feature>
              <rects>
                <_>
                  5 0 6 3 -1.</_>
                <_>
                  7 2 2 3 3.</_></rects>
              <tilted>1</tilted></feature>
            <threshold>-8.7204892188310623e-003</threshold>
            <left_val>2.2544200718402863e-001</left_val>
            <right_val>-4.3404039740562439e-001</right_val></_></_>
        <_>
          <!-- tree 11 -->
          <_>
            <!-- root node -->
            <feature>
              <rects>
                <_>
                  12 23 2 1 -1.</_>
                <_>
                  12 23 1 1 2.</_></rects>
              <tilted>0</tilted></feature>
            <threshold>5.7636020937934518e-004</threshold>
            <left_val>8.6796149611473083e-002</left_val>
            <right_val>-4.9523168802261353e-001</right_val></_></_>
        <_>
          <!-- tree 12 -->
          <_>
            <!-- root node -->
            <feature>
              <rects>
                <_>
                  5 23 2 1 -1.</_>
                <_>
                  6 23 1 1 2.</_></rects>
              <tilted>0</tilted></feature>
            <threshold>-4.7699580318294466e-004</threshold>
            <left_val>-6.2468177080154419e-001</left_val>
            <right_val>1.5375719964504242e-001</right_val></_></_>
        <_>
          <!-- tree 13 -->
          <_>
            <!-- root node -->
            <feature>
              <rects>
                <_>
                  7 16 16 8 -1.</_>
                <_>
                  15 16 8 4 2.</_>
                <_>
                  7 20 8 4 2.</_></rects>
              <tilted>0</tilted></feature>
            <threshold>-3.0070180073380470e-002</threshold>
            <left_val>1.9777779281139374e-001</left_val>
            <right_val>-2.1255530416965485e-001</right_val></_></_>
        <_>
          <!-- tree 14 -->
          <_>
            <!-- root node -->
            <feature>
              <rects>
                <_>
                  4 12 12 1 -1.</_>
                <_>
                  10 12 6 1 2.</_></rects>
              <tilted>0</tilted></feature>
            <threshold>3.9149360964074731e-004</threshold>
            <left_val>-4.6905928850173950e-001</left_val>
            <right_val>1.9967970252037048e-001</right_val></_></_>
        <_>
          <!-- tree 15 -->
          <_>
            <!-- root node -->
            <feature>
              <rects>
                <_>
                  23 6 1 2 -1.</_>
                <_>
                  23 7 1 1 2.</_></rects>
              <tilted>0</tilted></feature>
            <threshold>4.5613729162141681e-004</threshold>
            <left_val>1.0650649666786194e-001</left_val>
            <right_val>-5.8483719825744629e-001</right_val></_></_>
        <_>
          <!-- tree 16 -->
          <_>
            <!-- root node -->
            <feature>
              <rects>
                <_>
                  7 9 1 4 -1.</_>
                <_>
                  7 10 1 2 2.</_></rects>
              <tilted>0</tilted></feature>
            <threshold>-3.0152459657983854e-005</threshold>
            <left_val>2.0617669820785522e-001</left_val>
            <right_val>-4.1746759414672852e-001</right_val></_></_>
        <_>
          <!-- tree 17 -->
          <_>
            <!-- root node -->
            <feature>
              <rects>
                <_>
                  17 10 3 3 -1.</_>
                <_>
                  18 10 1 3 3.</_></rects>
              <tilted>0</tilted></feature>
            <threshold>-1.1951529886573553e-003</threshold>
            <left_val>-2.1974170207977295e-001</left_val>
            <right_val>6.1362821608781815e-002</right_val></_></_>
        <_>
          <!-- tree 18 -->
          <_>
            <!-- root node -->
            <feature>
              <rects>
                <_>
                  4 10 3 3 -1.</_>
                <_>
                  5 10 1 3 3.</_></rects>
              <tilted>0</tilted></feature>
            <threshold>-3.0796090140938759e-003</threshold>
            <left_val>4.4536209106445313e-001</left_val>
            <right_val>-1.9363169372081757e-001</right_val></_></_>
        <_>
          <!-- tree 19 -->
          <_>
            <!-- root node -->
            <feature>
              <rects>
                <_>
                  22 6 2 3 -1.</_>
                <_>
                  22 7 2 1 3.</_></rects>
              <tilted>0</tilted></feature>
            <threshold>-2.6014840696007013e-003</threshold>
            <left_val>-4.6408459544181824e-001</left_val>
            <right_val>8.6703337728977203e-002</right_val></_></_></trees>
      <stage_threshold>-1.6678400039672852e+000</stage_threshold>
      <parent>6</parent>
      <next>-1</next></_>
    <_>
      <!-- stage 8 -->
      <trees>
        <_>
          <!-- tree 0 -->
          <_>
            <!-- root node -->
            <feature>
              <rects>
                <_>
                  4 12 3 2 -1.</_>
                <_>
                  5 12 1 2 3.</_></rects>
              <tilted>0</tilted></feature>
            <threshold>4.0791528299450874e-003</threshold>
            <left_val>-3.5178330540657043e-001</left_val>
            <right_val>6.6126912832260132e-001</right_val></_></_>
        <_>
          <!-- tree 1 -->
          <_>
            <!-- root node -->
            <feature>
              <rects>
                <_>
                  18 1 4 3 -1.</_>
                <_>
                  17 2 4 1 3.</_></rects>
              <tilted>1</tilted></feature>
            <threshold>-2.2153649479150772e-002</threshold>
            <left_val>6.0164088010787964e-001</left_val>
            <right_val>-2.7848520874977112e-001</right_val></_></_>
        <_>
          <!-- tree 2 -->
          <_>
            <!-- root node -->
            <feature>
              <rects>
                <_>
                  6 1 3 4 -1.</_>
                <_>
                  7 2 1 4 3.</_></rects>
              <tilted>1</tilted></feature>
            <threshold>-2.3567270487546921e-002</threshold>
            <left_val>6.9386470317840576e-001</left_val>
            <right_val>-2.4817599356174469e-001</right_val></_></_>
        <_>
          <!-- tree 3 -->
          <_>
            <!-- root node -->
            <feature>
              <rects>
                <_>
                  9 10 15 6 -1.</_>
                <_>
                  14 12 5 2 9.</_></rects>
              <tilted>0</tilted></feature>
            <threshold>5.6985549628734589e-002</threshold>
            <left_val>-2.1253709495067596e-001</left_val>
            <right_val>2.4835640192031860e-001</right_val></_></_>
        <_>
          <!-- tree 4 -->
          <_>
            <!-- root node -->
            <feature>
              <rects>
                <_>
                  0 10 12 6 -1.</_>
                <_>
                  4 12 4 2 9.</_></rects>
              <tilted>0</tilted></feature>
            <threshold>-1.5810029581189156e-002</threshold>
            <left_val>2.5458618998527527e-001</left_val>
            <right_val>-6.5455788373947144e-001</right_val></_></_>
        <_>
          <!-- tree 5 -->
          <_>
            <!-- root node -->
            <feature>
              <rects>
                <_>
                  6 6 12 12 -1.</_>
                <_>
                  10 10 4 4 9.</_></rects>
              <tilted>0</tilted></feature>
            <threshold>-3.9982471615076065e-002</threshold>
            <left_val>1.9896680116653442e-001</left_val>
            <right_val>-6.1047947406768799e-001</right_val></_></_>
        <_>
          <!-- tree 6 -->
          <_>
            <!-- root node -->
            <feature>
              <rects>
                <_>
                  8 10 1 2 -1.</_>
                <_>
                  8 10 1 1 2.</_></rects>
              <tilted>1</tilted></feature>
            <threshold>9.2956982553005219e-004</threshold>
            <left_val>1.2479080259799957e-001</left_val>
            <right_val>-7.6700317859649658e-001</right_val></_></_>
        <_>
          <!-- tree 7 -->
          <_>
            <!-- root node -->
            <feature>
              <rects>
                <_>
                  9 21 6 3 -1.</_>
                <_>
                  9 22 6 1 3.</_></rects>
              <tilted>0</tilted></feature>
            <threshold>-1.0397870093584061e-002</threshold>
            <left_val>6.0182899236679077e-001</left_val>
            <right_val>-2.0507630705833435e-001</right_val></_></_>
        <_>
          <!-- tree 8 -->
          <_>
            <!-- root node -->
            <feature>
              <rects>
                <_>
                  1 16 16 8 -1.</_>
                <_>
                  1 16 8 4 2.</_>
                <_>
                  9 20 8 4 2.</_></rects>
              <tilted>0</tilted></feature>
            <threshold>-1.4130130410194397e-002</threshold>
            <left_val>2.7655950188636780e-001</left_val>
            <right_val>-3.6749479174613953e-001</right_val></_></_>
        <_>
          <!-- tree 9 -->
          <_>
            <!-- root node -->
            <feature>
              <rects>
                <_>
                  15 10 9 1 -1.</_>
                <_>
                  18 10 3 1 3.</_></rects>
              <tilted>0</tilted></feature>
            <threshold>-5.1846490241587162e-003</threshold>
            <left_val>1.6336689889431000e-001</left_val>
            <right_val>-8.9266367256641388e-002</right_val></_></_>
        <_>
          <!-- tree 10 -->
          <_>
            <!-- root node -->
            <feature>
              <rects>
                <_>
                  6 10 3 4 -1.</_>
                <_>
                  6 12 3 2 2.</_></rects>
              <tilted>0</tilted></feature>
            <threshold>4.5444658026099205e-003</threshold>
            <left_val>1.1856450140476227e-001</left_val>
            <right_val>-8.1457310914993286e-001</right_val></_></_>
        <_>
          <!-- tree 11 -->
          <_>
            <!-- root node -->
            <feature>
              <rects>
                <_>
                  9 0 8 6 -1.</_>
                <_>
                  9 2 8 2 3.</_></rects>
              <tilted>0</tilted></feature>
            <threshold>-3.9436038583517075e-002</threshold>
            <left_val>3.9094910025596619e-001</left_val>
            <right_val>-1.8827620148658752e-001</right_val></_></_>
        <_>
          <!-- tree 12 -->
          <_>
            <!-- root node -->
            <feature>
              <rects>
                <_>
                  8 1 7 3 -1.</_>
                <_>
                  8 2 7 1 3.</_></rects>
              <tilted>0</tilted></feature>
            <threshold>8.3734374493360519e-003</threshold>
            <left_val>-1.7820739746093750e-001</left_val>
            <right_val>5.3474861383438110e-001</right_val></_></_>
        <_>
          <!-- tree 13 -->
          <_>
            <!-- root node -->
            <feature>
              <rects>
                <_>
                  6 2 12 2 -1.</_>
                <_>
                  6 3 12 1 2.</_></rects>
              <tilted>0</tilted></feature>
            <threshold>7.9331016167998314e-003</threshold>
            <left_val>-1.8941479921340942e-001</left_val>
            <right_val>5.2413201332092285e-001</right_val></_></_>
        <_>
          <!-- tree 14 -->
          <_>
            <!-- root node -->
            <feature>
              <rects>
                <_>
                  0 16 1 4 -1.</_>
                <_>
                  0 17 1 2 2.</_></rects>
              <tilted>0</tilted></feature>
            <threshold>-9.4711960991844535e-004</threshold>
            <left_val>-7.1259427070617676e-001</left_val>
            <right_val>1.4189329743385315e-001</right_val></_></_>
        <_>
          <!-- tree 15 -->
          <_>
            <!-- root node -->
            <feature>
              <rects>
                <_>
                  16 15 6 1 -1.</_>
                <_>
                  18 17 2 1 3.</_></rects>
              <tilted>1</tilted></feature>
            <threshold>-2.7553259860724211e-003</threshold>
            <left_val>2.9065340757369995e-001</left_val>
            <right_val>-4.2617601156234741e-001</right_val></_></_>
        <_>
          <!-- tree 16 -->
          <_>
            <!-- root node -->
            <feature>
              <rects>
                <_>
                  7 16 2 4 -1.</_>
                <_>
                  6 17 2 2 2.</_></rects>
              <tilted>1</tilted></feature>
            <threshold>-5.0245807506144047e-004</threshold>
            <left_val>1.8726690113544464e-001</left_val>
            <right_val>-4.4944190979003906e-001</right_val></_></_></trees>
      <stage_threshold>-1.6685830354690552e+000</stage_threshold>
      <parent>7</parent>
      <next>-1</next></_>
    <_>
      <!-- stage 9 -->
      <trees>
        <_>
          <!-- tree 0 -->
          <_>
            <!-- root node -->
            <feature>
              <rects>
                <_>
                  5 14 6 4 -1.</_>
                <_>
                  4 15 6 2 2.</_></rects>
              <tilted>1</tilted></feature>
            <threshold>-2.3335240781307220e-002</threshold>
            <left_val>5.4479622840881348e-001</left_val>
            <right_val>-3.9159259200096130e-001</right_val></_></_>
        <_>
          <!-- tree 1 -->
          <_>
            <!-- root node -->
            <feature>
              <rects>
                <_>
                  17 0 6 4 -1.</_>
                <_>
                  16 1 6 2 2.</_></rects>
              <tilted>1</tilted></feature>
            <threshold>-6.6291308030486107e-003</threshold>
            <left_val>2.4252110719680786e-001</left_val>
            <right_val>-5.1420527696609497e-001</right_val></_></_>
        <_>
          <!-- tree 2 -->
          <_>
            <!-- root node -->
            <feature>
              <rects>
                <_>
                  7 0 4 6 -1.</_>
                <_>
                  8 1 2 6 2.</_></rects>
              <tilted>1</tilted></feature>
            <threshold>-1.7973219975829124e-002</threshold>
            <left_val>4.2364761233329773e-001</left_val>
            <right_val>-4.8580780625343323e-001</right_val></_></_>
        <_>
          <!-- tree 3 -->
          <_>
            <!-- root node -->
            <feature>
              <rects>
                <_>
                  15 10 3 2 -1.</_>
                <_>
                  16 10 1 2 3.</_></rects>
              <tilted>0</tilted></feature>
            <threshold>1.3891430571675301e-003</threshold>
            <left_val>5.1060941070318222e-002</left_val>
            <right_val>-1.8272949755191803e-001</right_val></_></_>
        <_>
          <!-- tree 4 -->
          <_>
            <!-- root node -->
            <feature>
              <rects>
                <_>
                  6 10 3 2 -1.</_>
                <_>
                  7 10 1 2 3.</_></rects>
              <tilted>0</tilted></feature>
            <threshold>-1.4871030580252409e-003</threshold>
            <left_val>3.2481339573860168e-001</left_val>
            <right_val>-4.9988248944282532e-001</right_val></_></_>
        <_>
          <!-- tree 5 -->
          <_>
            <!-- root node -->
            <feature>
              <rects>
                <_>
                  11 6 9 12 -1.</_>
                <_>
                  11 10 9 4 3.</_></rects>
              <tilted>0</tilted></feature>
            <threshold>-2.0484229549765587e-002</threshold>
            <left_val>5.6527789682149887e-002</left_val>
            <right_val>-2.0692719519138336e-001</right_val></_></_>
        <_>
          <!-- tree 6 -->
          <_>
            <!-- root node -->
            <feature>
              <rects>
                <_>
                  6 4 8 6 -1.</_>
                <_>
                  4 6 8 2 3.</_></rects>
              <tilted>1</tilted></feature>
            <threshold>-1.5010350383818150e-002</threshold>
            <left_val>2.5973048806190491e-001</left_val>
            <right_val>-4.2664968967437744e-001</right_val></_></_>
        <_>
          <!-- tree 7 -->
          <_>
            <!-- root node -->
            <feature>
              <rects>
                <_>
                  8 19 8 3 -1.</_>
                <_>
                  8 20 8 1 3.</_></rects>
              <tilted>0</tilted></feature>
            <threshold>-1.5695249661803246e-002</threshold>
            <left_val>5.9493720531463623e-001</left_val>
            <right_val>-1.8816639482975006e-001</right_val></_></_>
        <_>
          <!-- tree 8 -->
          <_>
            <!-- root node -->
            <feature>
              <rects>
                <_>
                  8 20 8 2 -1.</_>
                <_>
                  8 21 8 1 2.</_></rects>
              <tilted>0</tilted></feature>
            <threshold>-8.8077466934919357e-003</threshold>
            <left_val>6.3284361362457275e-001</left_val>
            <right_val>-1.6931860148906708e-001</right_val></_></_>
        <_>
          <!-- tree 9 -->
          <_>
            <!-- root node -->
            <feature>
              <rects>
                <_>
                  15 11 9 1 -1.</_>
                <_>
                  18 11 3 1 3.</_></rects>
              <tilted>0</tilted></feature>
            <threshold>7.3729711584746838e-003</threshold>
            <left_val>-2.7724310755729675e-002</left_val>
            <right_val>2.2519829869270325e-001</right_val></_></_>
        <_>
          <!-- tree 10 -->
          <_>
            <!-- root node -->
            <feature>
              <rects>
                <_>
                  0 11 9 1 -1.</_>
                <_>
                  3 11 3 1 3.</_></rects>
              <tilted>0</tilted></feature>
            <threshold>4.3183141387999058e-003</threshold>
            <left_val>1.6538450121879578e-001</left_val>
            <right_val>-6.1620122194290161e-001</right_val></_></_>
        <_>
          <!-- tree 11 -->
          <_>
            <!-- root node -->
            <feature>
              <rects>
                <_>
                  13 7 2 6 -1.</_>
                <_>
                  11 9 2 2 3.</_></rects>
              <tilted>1</tilted></feature>
            <threshold>-2.7083029970526695e-002</threshold>
            <left_val>-5.9766751527786255e-001</left_val>
            <right_val>1.3728619553148746e-002</right_val></_></_>
        <_>
          <!-- tree 12 -->
          <_>
            <!-- root node -->
            <feature>
              <rects>
                <_>
                  11 7 6 2 -1.</_>
                <_>
                  13 9 2 2 3.</_></rects>
              <tilted>1</tilted></feature>
            <threshold>-7.8433565795421600e-003</threshold>
            <left_val>2.3552410304546356e-001</left_val>
            <right_val>-4.1873410344123840e-001</right_val></_></_>
        <_>
          <!-- tree 13 -->
          <_>
            <!-- root node -->
            <feature>
              <rects>
                <_>
                  9 0 9 1 -1.</_>
                <_>
                  12 0 3 1 3.</_></rects>
              <tilted>0</tilted></feature>
            <threshold>3.4098059404641390e-003</threshold>
            <left_val>1.1077930033206940e-001</left_val>
            <right_val>-5.6286591291427612e-001</right_val></_></_>
        <_>
          <!-- tree 14 -->
          <_>
            <!-- root node -->
            <feature>
              <rects>
                <_>
                  6 0 9 1 -1.</_>
                <_>
                  9 0 3 1 3.</_></rects>
              <tilted>0</tilted></feature>
            <threshold>2.1373711060732603e-003</threshold>
            <left_val>1.7394499480724335e-001</left_val>
            <right_val>-5.5270397663116455e-001</right_val></_></_>
        <_>
          <!-- tree 15 -->
          <_>
            <!-- root node -->
            <feature>
              <rects>
                <_>
                  11 23 3 1 -1.</_>
                <_>
                  12 23 1 1 3.</_></rects>
              <tilted>0</tilted></feature>
            <threshold>-1.0968169663101435e-003</threshold>
            <left_val>-6.2033742666244507e-001</left_val>
            <right_val>9.0634889900684357e-002</right_val></_></_>
        <_>
          <!-- tree 16 -->
          <_>
            <!-- root node -->
            <feature>
              <rects>
                <_>
                  3 11 2 4 -1.</_>
                <_>
                  3 11 1 2 2.</_>
                <_>
                  4 13 1 2 2.</_></rects>
              <tilted>0</tilted></feature>
            <threshold>3.6674889270216227e-004</threshold>
            <left_val>-3.1833150982856750e-001</left_val>
            <right_val>2.3224359750747681e-001</right_val></_></_>
        <_>
          <!-- tree 17 -->
          <_>
            <!-- root node -->
            <feature>
              <rects>
                <_>
                  8 0 8 4 -1.</_>
                <_>
                  8 1 8 2 2.</_></rects>
              <tilted>0</tilted></feature>
            <threshold>-2.6410970836877823e-002</threshold>
            <left_val>6.3737207651138306e-001</left_val>
            <right_val>-1.3551090657711029e-001</right_val></_></_>
        <_>
          <!-- tree 18 -->
          <_>
            <!-- root node -->
            <feature>
              <rects>
                <_>
                  8 2 7 3 -1.</_>
                <_>
                  8 3 7 1 3.</_></rects>
              <tilted>0</tilted></feature>
            <threshold>-2.1259989589452744e-002</threshold>
            <left_val>6.3882672786712646e-001</left_val>
            <right_val>-1.1767020076513290e-001</right_val></_></_>
        <_>
          <!-- tree 19 -->
          <_>
            <!-- root node -->
            <feature>
              <rects>
                <_>
                  23 1 1 3 -1.</_>
                <_>
                  23 2 1 1 3.</_></rects>
              <tilted>0</tilted></feature>
            <threshold>8.7046792032197118e-004</threshold>
            <left_val>1.3618299365043640e-001</left_val>
            <right_val>-7.5955772399902344e-001</right_val></_></_>
        <_>
          <!-- tree 20 -->
          <_>
            <!-- root node -->
            <feature>
              <rects>
                <_>
                  6 17 12 6 -1.</_>
                <_>
                  6 19 12 2 3.</_></rects>
              <tilted>0</tilted></feature>
            <threshold>-2.9490139335393906e-002</threshold>
            <left_val>3.2878100872039795e-001</left_val>
            <right_val>-2.2142399847507477e-001</right_val></_></_></trees>
      <stage_threshold>-1.6838779449462891e+000</stage_threshold>
      <parent>8</parent>
      <next>-1</next></_>
    <_>
      <!-- stage 10 -->
      <trees>
        <_>
          <!-- tree 0 -->
          <_>
            <!-- root node -->
            <feature>
              <rects>
                <_>
                  5 12 6 1 -1.</_>
                <_>
                  7 12 2 1 3.</_></rects>
              <tilted>0</tilted></feature>
            <threshold>-1.4032350154593587e-003</threshold>
            <left_val>3.0719658732414246e-001</left_val>
            <right_val>-6.7760872840881348e-001</right_val></_></_>
        <_>
          <!-- tree 1 -->
          <_>
            <!-- root node -->
            <feature>
              <rects>
                <_>
                  19 2 4 3 -1.</_>
                <_>
                  18 3 4 1 3.</_></rects>
              <tilted>1</tilted></feature>
            <threshold>-2.4614589288830757e-002</threshold>
            <left_val>6.4632308483123779e-001</left_val>
            <right_val>-3.3557081222534180e-001</right_val></_></_>
        <_>
          <!-- tree 2 -->
          <_>
            <!-- root node -->
            <feature>
              <rects>
                <_>
                  5 16 4 3 -1.</_>
                <_>
                  4 17 4 1 3.</_></rects>
              <tilted>1</tilted></feature>
            <threshold>-3.0759079381823540e-002</threshold>
            <left_val>7.9881542921066284e-001</left_val>
            <right_val>-2.0366829633712769e-001</right_val></_></_>
        <_>
          <!-- tree 3 -->
          <_>
            <!-- root node -->
            <feature>
              <rects>
                <_>
                  7 7 12 12 -1.</_>
                <_>
                  11 11 4 4 9.</_></rects>
              <tilted>0</tilted></feature>
            <threshold>-1.6466530039906502e-002</threshold>
            <left_val>1.8341930210590363e-001</left_val>
            <right_val>-4.5851099491119385e-001</right_val></_></_>
        <_>
          <!-- tree 4 -->
          <_>
            <!-- root node -->
            <feature>
              <rects>
                <_>
                  3 10 3 4 -1.</_>
                <_>
                  4 10 1 4 3.</_></rects>
              <tilted>0</tilted></feature>
            <threshold>-3.1004180200397968e-003</threshold>
            <left_val>3.1214821338653564e-001</left_val>
            <right_val>-3.6097759008407593e-001</right_val></_></_>
        <_>
          <!-- tree 5 -->
          <_>
            <!-- root node -->
            <feature>
              <rects>
                <_>
                  12 12 1 8 -1.</_>
                <_>
                  10 14 1 4 2.</_></rects>
              <tilted>1</tilted></feature>
            <threshold>-1.4149079797789454e-003</threshold>
            <left_val>-2.2735460102558136e-001</left_val>
            <right_val>1.3629740104079247e-002</right_val></_></_>
        <_>
          <!-- tree 6 -->
          <_>
            <!-- root node -->
            <feature>
              <rects>
                <_>
                  5 11 4 2 -1.</_>
                <_>
                  5 11 2 1 2.</_>
                <_>
                  7 12 2 1 2.</_></rects>
              <tilted>0</tilted></feature>
            <threshold>-2.2590260487049818e-003</threshold>
            <left_val>-8.0593472719192505e-001</left_val>
            <right_val>1.2586270272731781e-001</right_val></_></_>
        <_>
          <!-- tree 7 -->
          <_>
            <!-- root node -->
            <feature>
              <rects>
                <_>
                  16 1 6 3 -1.</_>
                <_>
                  15 2 6 1 3.</_></rects>
              <tilted>1</tilted></feature>
            <threshold>1.3453540392220020e-002</threshold>
            <left_val>-1.9432419538497925e-001</left_val>
            <right_val>4.5248121023178101e-001</right_val></_></_>
        <_>
          <!-- tree 8 -->
          <_>
            <!-- root node -->
            <feature>
              <rects>
                <_>
                  8 1 6 4 -1.</_>
                <_>
                  8 2 6 2 2.</_></rects>
              <tilted>0</tilted></feature>
            <threshold>-9.2906430363655090e-003</threshold>
            <left_val>4.5017701387405396e-001</left_val>
            <right_val>-2.4062350392341614e-001</right_val></_></_>
        <_>
          <!-- tree 9 -->
          <_>
            <!-- root node -->
            <feature>
              <rects>
                <_>
                  4 18 16 1 -1.</_>
                <_>
                  8 18 8 1 2.</_></rects>
              <tilted>0</tilted></feature>
            <threshold>5.8276019990444183e-003</threshold>
            <left_val>-3.4148940443992615e-001</left_val>
            <right_val>2.8639060258865356e-001</right_val></_></_>
        <_>
          <!-- tree 10 -->
          <_>
            <!-- root node -->
            <feature>
              <rects>
                <_>
                  5 2 3 4 -1.</_>
                <_>
                  6 3 1 4 3.</_></rects>
              <tilted>1</tilted></feature>
            <threshold>-2.3828890174627304e-002</threshold>
            <left_val>6.0332012176513672e-001</left_val>
            <right_val>-1.6664290428161621e-001</right_val></_></_>
        <_>
          <!-- tree 11 -->
          <_>
            <!-- root node -->
            <feature>
              <rects>
                <_>
                  23 5 1 6 -1.</_>
                <_>
                  23 7 1 2 3.</_></rects>
              <tilted>0</tilted></feature>
            <threshold>-1.8533359980210662e-003</threshold>
            <left_val>-4.6074751019477844e-001</left_val>
            <right_val>1.2011670321226120e-001</right_val></_></_>
        <_>
          <!-- tree 12 -->
          <_>
            <!-- root node -->
            <feature>
              <rects>
                <_>
                  0 5 1 6 -1.</_>
                <_>
                  0 7 1 2 3.</_></rects>
              <tilted>0</tilted></feature>
            <threshold>2.9804049991071224e-003</threshold>
            <left_val>1.1227460205554962e-001</left_val>
            <right_val>-7.4448072910308838e-001</right_val></_></_>
        <_>
          <!-- tree 13 -->
          <_>
            <!-- root node -->
            <feature>
              <rects>
                <_>
                  11 10 4 2 -1.</_>
                <_>
                  12 10 2 2 2.</_></rects>
              <tilted>0</tilted></feature>
            <threshold>1.0092860320582986e-003</threshold>
            <left_val>-1.3965269923210144e-001</left_val>
            <right_val>2.2107939422130585e-001</right_val></_></_>
        <_>
          <!-- tree 14 -->
          <_>
            <!-- root node -->
            <feature>
              <rects>
                <_>
                  3 10 12 6 -1.</_>
                <_>
                  7 12 4 2 9.</_></rects>
              <tilted>0</tilted></feature>
            <threshold>2.8850550297647715e-003</threshold>
            <left_val>1.5234220027923584e-001</left_val>
            <right_val>-5.5587142705917358e-001</right_val></_></_>
        <_>
          <!-- tree 15 -->
          <_>
            <!-- root node -->
            <feature>
              <rects>
                <_>
                  21 5 3 5 -1.</_>
                <_>
                  22 6 1 5 3.</_></rects>
              <tilted>1</tilted></feature>
            <threshold>3.9520300924777985e-003</threshold>
            <left_val>7.3503121733665466e-002</left_val>
            <right_val>-2.3830580711364746e-001</right_val></_></_>
        <_>
          <!-- tree 16 -->
          <_>
            <!-- root node -->
            <feature>
              <rects>
                <_>
                  7 2 3 5 -1.</_>
                <_>
                  8 3 1 5 3.</_></rects>
              <tilted>1</tilted></feature>
            <threshold>-2.3242089897394180e-002</threshold>
            <left_val>6.2472957372665405e-001</left_val>
            <right_val>-1.3050170242786407e-001</right_val></_></_>
        <_>
          <!-- tree 17 -->
          <_>
            <!-- root node -->
            <feature>
              <rects>
                <_>
                  21 5 3 5 -1.</_>
                <_>
                  22 6 1 5 3.</_></rects>
              <tilted>1</tilted></feature>
            <threshold>-1.5284040011465549e-002</threshold>
            <left_val>-6.0265278816223145e-001</left_val>
            <right_val>5.4442949593067169e-002</right_val></_></_>
        <_>
          <!-- tree 18 -->
          <_>
            <!-- root node -->
            <feature>
              <rects>
                <_>
                  3 5 5 3 -1.</_>
                <_>
                  2 6 5 1 3.</_></rects>
              <tilted>1</tilted></feature>
            <threshold>2.2052379790693521e-003</threshold>
            <left_val>1.6818200051784515e-001</left_val>
            <right_val>-4.9186021089553833e-001</right_val></_></_>
        <_>
          <!-- tree 19 -->
          <_>
            <!-- root node -->
            <feature>
              <rects>
                <_>
                  9 1 6 3 -1.</_>
                <_>
                  9 2 6 1 3.</_></rects>
              <tilted>0</tilted></feature>
            <threshold>9.2779677361249924e-003</threshold>
            <left_val>-1.7194530367851257e-001</left_val>
            <right_val>4.9656158685684204e-001</right_val></_></_>
        <_>
          <!-- tree 20 -->
          <_>
            <!-- root node -->
            <feature>
              <rects>
                <_>
                  4 13 5 4 -1.</_>
                <_>
                  3 14 5 2 2.</_></rects>
              <tilted>1</tilted></feature>
            <threshold>-2.8639629017561674e-003</threshold>
            <left_val>2.0736789703369141e-001</left_val>
            <right_val>-3.9704430103302002e-001</right_val></_></_>
        <_>
          <!-- tree 21 -->
          <_>
            <!-- root node -->
            <feature>
              <rects>
                <_>
                  12 10 8 4 -1.</_>
                <_>
                  16 10 4 2 2.</_>
                <_>
                  12 12 4 2 2.</_></rects>
              <tilted>0</tilted></feature>
            <threshold>2.1532539278268814e-002</threshold>
            <left_val>1.7967490479350090e-002</left_val>
            <right_val>-7.6111477613449097e-001</right_val></_></_>
        <_>
          <!-- tree 22 -->
          <_>
            <!-- root node -->
            <feature>
              <rects>
                <_>
                  4 8 8 6 -1.</_>
                <_>
                  4 8 4 3 2.</_>
                <_>
                  8 11 4 3 2.</_></rects>
              <tilted>0</tilted></feature>
            <threshold>-2.1335719153285027e-002</threshold>
            <left_val>-8.1406897306442261e-001</left_val>
            <right_val>8.4173940122127533e-002</right_val></_></_>
        <_>
          <!-- tree 23 -->
          <_>
            <!-- root node -->
            <feature>
              <rects>
                <_>
                  23 10 1 2 -1.</_>
                <_>
                  23 11 1 1 2.</_></rects>
              <tilted>0</tilted></feature>
            <threshold>2.7877939282916486e-004</threshold>
            <left_val>1.0744620114564896e-001</left_val>
            <right_val>-4.7423830628395081e-001</right_val></_></_></trees>
      <stage_threshold>-1.7035789489746094e+000</stage_threshold>
      <parent>9</parent>
      <next>-1</next></_>
    <_>
      <!-- stage 11 -->
      <trees>
        <_>
          <!-- tree 0 -->
          <_>
            <!-- root node -->
            <feature>
              <rects>
                <_>
                  6 9 2 6 -1.</_>
                <_>
                  6 9 1 3 2.</_>
                <_>
                  7 12 1 3 2.</_></rects>
              <tilted>0</tilted></feature>
            <threshold>4.1560078971087933e-003</threshold>
            <left_val>-3.3625039458274841e-001</left_val>
            <right_val>5.4329001903533936e-001</right_val></_></_>
        <_>
          <!-- tree 1 -->
          <_>
            <!-- root node -->
            <feature>
              <rects>
                <_>
                  18 1 5 3 -1.</_>
                <_>
                  17 2 5 1 3.</_></rects>
              <tilted>1</tilted></feature>
            <threshold>-1.8795030191540718e-002</threshold>
            <left_val>4.5527449250221252e-001</left_val>
            <right_val>-4.2405280470848083e-001</right_val></_></_>
        <_>
          <!-- tree 2 -->
          <_>
            <!-- root node -->
            <feature>
              <rects>
                <_>
                  12 12 3 1 -1.</_>
                <_>
                  13 13 1 1 3.</_></rects>
              <tilted>1</tilted></feature>
            <threshold>-1.5968839870765805e-003</threshold>
            <left_val>3.6122220754623413e-001</left_val>
            <right_val>-4.2947781085968018e-001</right_val></_></_>
        <_>
          <!-- tree 3 -->
          <_>
            <!-- root node -->
            <feature>
              <rects>
                <_>
                  10 7 4 4 -1.</_>
                <_>
                  10 9 4 2 2.</_></rects>
              <tilted>0</tilted></feature>
            <threshold>-5.9301489964127541e-003</threshold>
            <left_val>3.2741239666938782e-001</left_val>
            <right_val>-3.9257508516311646e-001</right_val></_></_>
        <_>
          <!-- tree 4 -->
          <_>
            <!-- root node -->
            <feature>
              <rects>
                <_>
                  3 10 6 3 -1.</_>
                <_>
                  5 12 2 3 3.</_></rects>
              <tilted>1</tilted></feature>
            <threshold>-5.6318240240216255e-003</threshold>
            <left_val>1.7341530323028564e-001</left_val>
            <right_val>-5.4889738559722900e-001</right_val></_></_>
        <_>
          <!-- tree 5 -->
          <_>
            <!-- root node -->
            <feature>
              <rects>
                <_>
                  19 1 4 3 -1.</_>
                <_>
                  18 2 4 1 3.</_></rects>
              <tilted>1</tilted></feature>
            <threshold>-3.2217610627412796e-002</threshold>
            <left_val>7.4348217248916626e-001</left_val>
            <right_val>-1.5302890539169312e-001</right_val></_></_>
        <_>
          <!-- tree 6 -->
          <_>
            <!-- root node -->
            <feature>
              <rects>
                <_>
                  5 14 6 4 -1.</_>
                <_>
                  4 15 6 2 2.</_></rects>
              <tilted>1</tilted></feature>
            <threshold>-1.6268080100417137e-002</threshold>
            <left_val>3.3051869273185730e-001</left_val>
            <right_val>-3.6802440881729126e-001</right_val></_></_>
        <_>
          <!-- tree 7 -->
          <_>
            <!-- root node -->
            <feature>
              <rects>
                <_>
                  19 1 4 3 -1.</_>
                <_>
                  18 2 4 1 3.</_></rects>
              <tilted>1</tilted></feature>
            <threshold>1.0375820100307465e-002</threshold>
            <left_val>-1.3809539377689362e-001</left_val>
            <right_val>5.7437282800674438e-001</right_val></_></_>
        <_>
          <!-- tree 8 -->
          <_>
            <!-- root node -->
            <feature>
              <rects>
                <_>
                  5 12 6 1 -1.</_>
                <_>
                  7 12 2 1 3.</_></rects>
              <tilted>0</tilted></feature>
            <threshold>7.0426752790808678e-004</threshold>
            <left_val>1.3941130042076111e-001</left_val>
            <right_val>-7.0076841115951538e-001</right_val></_></_>
        <_>
          <!-- tree 9 -->
          <_>
            <!-- root node -->
            <feature>
              <rects>
                <_>
                  18 1 5 4 -1.</_>
                <_>
                  17 2 5 2 2.</_></rects>
              <tilted>1</tilted></feature>
            <threshold>-6.9266278296709061e-004</threshold>
            <left_val>5.2130300551652908e-002</left_val>
            <right_val>-2.6659628748893738e-001</right_val></_></_>
        <_>
          <!-- tree 10 -->
          <_>
            <!-- root node -->
            <feature>
              <rects>
                <_>
                  6 1 4 5 -1.</_>
                <_>
                  7 2 2 5 2.</_></rects>
              <tilted>1</tilted></feature>
            <threshold>-4.9142469651997089e-003</threshold>
            <left_val>1.9232480227947235e-001</left_val>
            <right_val>-4.9461010098457336e-001</right_val></_></_>
        <_>
          <!-- tree 11 -->
          <_>
            <!-- root node -->
            <feature>
              <rects>
                <_>
                  6 19 13 2 -1.</_>
                <_>
                  6 20 13 1 2.</_></rects>
              <tilted>0</tilted></feature>
            <threshold>-3.0766830313950777e-003</threshold>
            <left_val>2.1661989390850067e-001</left_val>
            <right_val>-3.0064240097999573e-001</right_val></_></_>
        <_>
          <!-- tree 12 -->
          <_>
            <!-- root node -->
            <feature>
              <rects>
                <_>
                  5 1 3 4 -1.</_>
                <_>
                  6 2 1 4 3.</_></rects>
              <tilted>1</tilted></feature>
            <threshold>-3.2788660377264023e-002</threshold>
            <left_val>8.6508667469024658e-001</left_val>
            <right_val>-9.2753462493419647e-002</right_val></_></_>
        <_>
          <!-- tree 13 -->
          <_>
            <!-- root node -->
            <feature>
              <rects>
                <_>
                  11 9 4 6 -1.</_>
                <_>
                  12 9 2 6 2.</_></rects>
              <tilted>0</tilted></feature>
            <threshold>7.9416977241635323e-003</threshold>
            <left_val>-7.1330852806568146e-002</left_val>
            <right_val>4.9951168894767761e-001</right_val></_></_>
        <_>
          <!-- tree 14 -->
          <_>
            <!-- root node -->
            <feature>
              <rects>
                <_>
                  5 14 5 3 -1.</_>
                <_>
                  4 15 5 1 3.</_></rects>
              <tilted>1</tilted></feature>
            <threshold>8.8924039155244827e-003</threshold>
            <left_val>-1.4877019822597504e-001</left_val>
            <right_val>4.9914941191673279e-001</right_val></_></_>
        <_>
          <!-- tree 15 -->
          <_>
            <!-- root node -->
            <feature>
              <rects>
                <_>
                  23 14 1 6 -1.</_>
                <_>
                  23 16 1 2 3.</_></rects>
              <tilted>0</tilted></feature>
            <threshold>-1.7421529628336430e-003</threshold>
            <left_val>-6.4057767391204834e-001</left_val>
            <right_val>1.3751460611820221e-001</right_val></_></_>
        <_>
          <!-- tree 16 -->
          <_>
            <!-- root node -->
            <feature>
              <rects>
                <_>
                  12 8 4 4 -1.</_>
                <_>
                  13 9 2 4 2.</_></rects>
              <tilted>1</tilted></feature>
            <threshold>-1.2682739907177165e-005</threshold>
            <left_val>1.5611170232295990e-001</left_val>
            <right_val>-4.5657458901405334e-001</right_val></_></_>
        <_>
          <!-- tree 17 -->
          <_>
            <!-- root node -->
            <feature>
              <rects>
                <_>
                  8 20 8 4 -1.</_>
                <_>
                  8 21 8 2 2.</_></rects>
              <tilted>0</tilted></feature>
            <threshold>-2.5876449421048164e-002</threshold>
            <left_val>6.5236192941665649e-001</left_val>
            <right_val>-1.1916700005531311e-001</right_val></_></_>
        <_>
          <!-- tree 18 -->
          <_>
            <!-- root node -->
            <feature>
              <rects>
                <_>
                  7 20 10 2 -1.</_>
                <_>
                  7 21 10 1 2.</_></rects>
              <tilted>0</tilted></feature>
            <threshold>1.0519309900701046e-002</threshold>
            <left_val>-1.4254400134086609e-001</left_val>
            <right_val>5.4089510440826416e-001</right_val></_></_>
        <_>
          <!-- tree 19 -->
          <_>
            <!-- root node -->
            <feature>
              <rects>
                <_>
                  16 10 2 1 -1.</_>
                <_>
                  16 10 1 1 2.</_></rects>
              <tilted>1</tilted></feature>
            <threshold>-2.7805790305137634e-003</threshold>
            <left_val>-4.7240549325942993e-001</left_val>
            <right_val>6.4126476645469666e-002</right_val></_></_>
        <_>
          <!-- tree 20 -->
          <_>
            <!-- root node -->
            <feature>
              <rects>
                <_>
                  8 10 1 2 -1.</_>
                <_>
                  8 10 1 1 2.</_></rects>
              <tilted>1</tilted></feature>
            <threshold>1.3096600305289030e-003</threshold>
            <left_val>9.4856247305870056e-002</left_val>
            <right_val>-8.0773091316223145e-001</right_val></_></_></trees>
      <stage_threshold>-1.5674860477447510e+000</stage_threshold>
      <parent>10</parent>
      <next>-1</next></_>
    <_>
      <!-- stage 12 -->
      <trees>
        <_>
          <!-- tree 0 -->
          <_>
            <!-- root node -->
            <feature>
              <rects>
                <_>
                  6 1 3 5 -1.</_>
                <_>
                  7 2 1 5 3.</_></rects>
              <tilted>1</tilted></feature>
            <threshold>-4.4331848621368408e-002</threshold>
            <left_val>8.4642761945724487e-001</left_val>
            <right_val>-2.1121139824390411e-001</right_val></_></_>
        <_>
          <!-- tree 1 -->
          <_>
            <!-- root node -->
            <feature>
              <rects>
                <_>
                  16 12 3 2 -1.</_>
                <_>
                  17 12 1 2 3.</_></rects>
              <tilted>0</tilted></feature>
            <threshold>3.1564470846205950e-003</threshold>
            <left_val>1.1194100230932236e-001</left_val>
            <right_val>-3.7559980154037476e-001</right_val></_></_>
        <_>
          <!-- tree 2 -->
          <_>
            <!-- root node -->
            <feature>
              <rects>
                <_>
                  5 12 3 2 -1.</_>
                <_>
                  6 12 1 2 3.</_></rects>
              <tilted>0</tilted></feature>
            <threshold>-2.1323950495570898e-003</threshold>
            <left_val>5.3211909532546997e-001</left_val>
            <right_val>-3.1464889645576477e-001</right_val></_></_>
        <_>
          <!-- tree 3 -->
          <_>
            <!-- root node -->
            <feature>
              <rects>
                <_>
                  16 6 6 12 -1.</_>
                <_>
                  18 10 2 4 9.</_></rects>
              <tilted>0</tilted></feature>
            <threshold>4.8775799572467804e-002</threshold>
            <left_val>-2.1967500448226929e-001</left_val>
            <right_val>4.1465079784393311e-001</right_val></_></_>
        <_>
          <!-- tree 4 -->
          <_>
            <!-- root node -->
            <feature>
              <rects>
                <_>
                  2 6 6 12 -1.</_>
                <_>
                  4 10 2 4 9.</_></rects>
              <tilted>0</tilted></feature>
            <threshold>-1.3986339792609215e-002</threshold>
            <left_val>2.4867750704288483e-001</left_val>
            <right_val>-5.5896770954132080e-001</right_val></_></_>
        <_>
          <!-- tree 5 -->
          <_>
            <!-- root node -->
            <feature>
              <rects>
                <_>
                  13 10 6 6 -1.</_>
                <_>
                  15 12 2 2 9.</_></rects>
              <tilted>0</tilted></feature>
            <threshold>-3.1411461532115936e-002</threshold>
            <left_val>-3.6614060401916504e-001</left_val>
            <right_val>4.2884398251771927e-002</right_val></_></_>
        <_>
          <!-- tree 6 -->
          <_>
            <!-- root node -->
            <feature>
              <rects>
                <_>
                  5 10 6 6 -1.</_>
                <_>
                  7 12 2 2 9.</_></rects>
              <tilted>0</tilted></feature>
            <threshold>-1.2651749886572361e-002</threshold>
            <left_val>1.9555500149726868e-001</left_val>
            <right_val>-5.6960368156433105e-001</right_val></_></_>
        <_>
          <!-- tree 7 -->
          <_>
            <!-- root node -->
            <feature>
              <rects>
                <_>
                  9 1 14 6 -1.</_>
                <_>
                  16 1 7 3 2.</_>
                <_>
                  9 4 7 3 2.</_></rects>
              <tilted>0</tilted></feature>
            <threshold>2.1456010639667511e-002</threshold>
            <left_val>-3.8176208734512329e-001</left_val>
            <right_val>2.9207620024681091e-001</right_val></_></_>
        <_>
          <!-- tree 8 -->
          <_>
            <!-- root node -->
            <feature>
              <rects>
                <_>
                  0 18 17 6 -1.</_>
                <_>
                  0 20 17 2 3.</_></rects>
              <tilted>0</tilted></feature>
            <threshold>-4.7009039670228958e-002</threshold>
            <left_val>3.8446280360221863e-001</left_val>
            <right_val>-2.3877850174903870e-001</right_val></_></_>
        <_>
          <!-- tree 9 -->
          <_>
            <!-- root node -->
            <feature>
              <rects>
                <_>
                  17 18 2 2 -1.</_>
                <_>
                  18 18 1 1 2.</_>
                <_>
                  17 19 1 1 2.</_></rects>
              <tilted>0</tilted></feature>
            <threshold>-2.4175399448722601e-003</threshold>
            <left_val>6.3513308763504028e-001</left_val>
            <right_val>-1.1361409723758698e-001</right_val></_></_>
        <_>
          <!-- tree 10 -->
          <_>
            <!-- root node -->
            <feature>
              <rects>
                <_>
                  0 3 1 4 -1.</_>
                <_>
                  0 4 1 2 2.</_></rects>
              <tilted>0</tilted></feature>
            <threshold>-6.8514957092702389e-004</threshold>
            <left_val>-6.2116682529449463e-001</left_val>
            <right_val>1.4872640371322632e-001</right_val></_></_>
        <_>
          <!-- tree 11 -->
          <_>
            <!-- root node -->
            <feature>
              <rects>
                <_>
                  13 8 1 4 -1.</_>
                <_>
                  12 9 1 2 2.</_></rects>
              <tilted>1</tilted></feature>
            <threshold>6.4371488988399506e-003</threshold>
            <left_val>-5.8856759220361710e-002</left_val>
            <right_val>3.7012809514999390e-001</right_val></_></_>
        <_>
          <!-- tree 12 -->
          <_>
            <!-- root node -->
            <feature>
              <rects>
                <_>
                  11 8 4 1 -1.</_>
                <_>
                  12 9 2 1 2.</_></rects>
              <tilted>1</tilted></feature>
            <threshold>-1.0574109619483352e-003</threshold>
            <left_val>2.1938569843769073e-001</left_val>
            <right_val>-4.6093219518661499e-001</right_val></_></_>
        <_>
          <!-- tree 13 -->
          <_>
            <!-- root node -->
            <feature>
              <rects>
                <_>
                  5 11 15 6 -1.</_>
                <_>
                  10 13 5 2 9.</_></rects>
              <tilted>0</tilted></feature>
            <threshold>2.4323839694261551e-002</threshold>
            <left_val>9.3898728489875793e-002</left_val>
            <right_val>-3.9525571465492249e-001</right_val></_></_>
        <_>
          <!-- tree 14 -->
          <_>
            <!-- root node -->
            <feature>
              <rects>
                <_>
                  4 19 16 1 -1.</_>
                <_>
                  8 19 8 1 2.</_></rects>
              <tilted>0</tilted></feature>
            <threshold>9.8100835457444191e-003</threshold>
            <left_val>-2.4015100300312042e-001</left_val>
            <right_val>3.4413760900497437e-001</right_val></_></_>
        <_>
          <!-- tree 15 -->
          <_>
            <!-- root node -->
            <feature>
              <rects>
                <_>
                  9 20 7 3 -1.</_>
                <_>
                  9 21 7 1 3.</_></rects>
              <tilted>0</tilted></feature>
            <threshold>4.9158828333020210e-003</threshold>
            <left_val>-1.9698600471019745e-001</left_val>
            <right_val>3.9532670378684998e-001</right_val></_></_>
        <_>
          <!-- tree 16 -->
          <_>
            <!-- root node -->
            <feature>
              <rects>
                <_>
                  0 20 24 2 -1.</_>
                <_>
                  6 20 12 2 2.</_></rects>
              <tilted>0</tilted></feature>
            <threshold>-1.2856610119342804e-002</threshold>
            <left_val>2.7930060029029846e-001</left_val>
            <right_val>-2.8761771321296692e-001</right_val></_></_>
        <_>
          <!-- tree 17 -->
          <_>
            <!-- root node -->
            <feature>
              <rects>
                <_>
                  19 23 3 1 -1.</_>
                <_>
                  20 23 1 1 3.</_></rects>
              <tilted>0</tilted></feature>
            <threshold>-6.0345442034304142e-004</threshold>
            <left_val>-4.7643449902534485e-001</left_val>
            <right_val>1.1183150112628937e-001</right_val></_></_>
        <_>
          <!-- tree 18 -->
          <_>
            <!-- root node -->
            <feature>
              <rects>
                <_>
                  4 1 10 2 -1.</_>
                <_>
                  4 1 5 1 2.</_>
                <_>
                  9 2 5 1 2.</_></rects>
              <tilted>0</tilted></feature>
            <threshold>1.1561660096049309e-002</threshold>
            <left_val>-1.2340679764747620e-001</left_val>
            <right_val>6.8779522180557251e-001</right_val></_></_>
        <_>
          <!-- tree 19 -->
          <_>
            <!-- root node -->
            <feature>
              <rects>
                <_>
                  17 4 2 2 -1.</_>
                <_>
                  18 4 1 1 2.</_>
                <_>
                  17 5 1 1 2.</_></rects>
              <tilted>0</tilted></feature>
            <threshold>-5.9904722729697824e-004</threshold>
            <left_val>4.1758769750595093e-001</left_val>
            <right_val>-1.3922889530658722e-001</right_val></_></_>
        <_>
          <!-- tree 20 -->
          <_>
            <!-- root node -->
            <feature>
              <rects>
                <_>
                  8 19 8 3 -1.</_>
                <_>
                  8 20 8 1 3.</_></rects>
              <tilted>0</tilted></feature>
            <threshold>9.4874706119298935e-003</threshold>
            <left_val>-1.3911479711532593e-001</left_val>
            <right_val>6.2229311466217041e-001</right_val></_></_>
        <_>
          <!-- tree 21 -->
          <_>
            <!-- root node -->
            <feature>
              <rects>
                <_>
                  15 0 2 1 -1.</_>
                <_>
                  15 0 1 1 2.</_></rects>
              <tilted>0</tilted></feature>
            <threshold>6.8916322197765112e-004</threshold>
            <left_val>7.6972663402557373e-002</left_val>
            <right_val>-4.8309120535850525e-001</right_val></_></_>
        <_>
          <!-- tree 22 -->
          <_>
            <!-- root node -->
            <feature>
              <rects>
                <_>
                  0 3 24 17 -1.</_>
                <_>
                  6 3 12 17 2.</_></rects>
              <tilted>0</tilted></feature>
            <threshold>1.6380770504474640e-001</threshold>
            <left_val>-1.5712760388851166e-001</left_val>
            <right_val>5.2376931905746460e-001</right_val></_></_>
        <_>
          <!-- tree 23 -->
          <_>
            <!-- root node -->
            <feature>
              <rects>
                <_>
                  15 0 7 2 -1.</_>
                <_>
                  15 0 7 1 2.</_></rects>
              <tilted>1</tilted></feature>
            <threshold>1.8059030175209045e-002</threshold>
            <left_val>-4.2853388935327530e-002</left_val>
            <right_val>5.8089649677276611e-001</right_val></_></_>
        <_>
          <!-- tree 24 -->
          <_>
            <!-- root node -->
            <feature>
              <rects>
                <_>
                  4 5 12 15 -1.</_>
                <_>
                  8 10 4 5 9.</_></rects>
              <tilted>0</tilted></feature>
            <threshold>2.7366669848561287e-002</threshold>
            <left_val>1.1572889983654022e-001</left_val>
            <right_val>-7.3610711097717285e-001</right_val></_></_></trees>
      <stage_threshold>-1.6126220226287842e+000</stage_threshold>
      <parent>11</parent>
      <next>-1</next></_>
    <_>
      <!-- stage 13 -->
      <trees>
        <_>
          <!-- tree 0 -->
          <_>
            <!-- root node -->
            <feature>
              <rects>
                <_>
                  6 1 3 4 -1.</_>
                <_>
                  7 2 1 4 3.</_></rects>
              <tilted>1</tilted></feature>
            <threshold>-3.1211499124765396e-002</threshold>
            <left_val>7.4172872304916382e-001</left_val>
            <right_val>-2.5290718674659729e-001</right_val></_></_>
        <_>
          <!-- tree 1 -->
          <_>
            <!-- root node -->
            <feature>
              <rects>
                <_>
                  20 11 2 3 -1.</_>
                <_>
                  19 12 2 1 3.</_></rects>
              <tilted>1</tilted></feature>
            <threshold>-6.3382489606738091e-003</threshold>
            <left_val>-3.3815959095954895e-001</left_val>
            <right_val>7.7751159667968750e-002</right_val></_></_>
        <_>
          <!-- tree 2 -->
